{"learner":{"attributes":{"scikit_learn":"{\"_estimator_type\": \"regressor\"}"},"feature_names":["year","km_driven","owner","seats","mileage_kmpl","engine_cc","max_power_bhp","torque_peak_power","torque_peak_speed","fuel_Diesel","fuel_LPG","fuel_Petrol","seller_type_Individual","seller_type_Trustmark Dealer","transmission_Manual","make_Audi","make_BMW","make_Chevrolet","make_Daewoo","make_Datsun","make_Fiat","make_Force","make_Ford","make_Honda","make_Hyundai","make_Isuzu","make_Jaguar","make_Jeep","make_Kia","make_MG","make_Mahindra","make_Maruti","make_Mercedes-Benz","make_Mitsubishi","make_Nissan","make_Opel","make_Peugeot","make_Renault","make_Skoda","make_Tata","make_Toyota","make_Volkswagen","make_Volvo"],"feature_types":["float","float","float","float","float","float","float","float","float","float","float","float","float","float","float","float","float","float","float","float","float","float","float","float","float","float","float","float","float","float","float","float","float","float","float","float","float","float","float","float","float","float","float"],"gradient_booster":{"model":{"gbtree_model_param":{"num_parallel_tree":"1","num_trees":"388"},"iteration_indptr":[0,1,2,3,4,5,6,7,8,9,10,11,12,13,14,15,16,17,18,19,20,21,22,23,24,25,26,27,28,29,30,31,32,33,34,35,36,37,38,39,40,41,42,43,44,45,46,47,48,49,50,51,52,53,54,55,56,57,58,59,60,61,62,63,64,65,66,67,68,69,70,71,72,73,74,75,76,77,78,79,80,81,82,83,84,85,86,87,88,89,90,91,92,93,94,95,96,97,98,99,100,101,102,103,104,105,106,107,108,109,110,111,112,113,114,115,116,117,118,119,120,121,122,123,124,125,126,127,128,129,130,131,132,133,134,135,136,137,138,139,140,141,142,143,144,145,146,147,148,149,150,151,152,153,154,155,156,157,158,159,160,161,162,163,164,165,166,167,168,169,170,171,172,173,174,175,176,177,178,179,180,181,182,183,184,185,186,187,188,189,190,191,192,193,194,195,196,197,198,199,200,201,202,203,204,205,206,207,208,209,210,211,212,213,214,215,216,217,218,219,220,221,222,223,224,225,226,227,228,229,230,231,232,233,234,235,236,237,238,239,240,241,242,243,244,245,246,247,248,249,250,251,252,253,254,255,256,257,258,259,260,261,262,263,264,265,266,267,268,269,270,271,272,273,274,275,276,277,278,279,280,281,282,283,284,285,286,287,288,289,290,291,292,293,294,295,296,297,298,299,300,301,302,303,304,305,306,307,308,309,310,311,312,313,314,315,316,317,318,319,320,321,322,323,324,325,326,327,328,329,330,331,332,333,334,335,336,337,338,339,340,341,342,343,344,345,346,347,348,349,350,351,352,353,354,355,356,357,358,359,360,361,362,363,364,365,366,367,368,369,370,371,372,373,374,375,376,377,378,379,380,381,382,383,384,385,386,387,388],"tree_info":[0,0,0,0,0,0,0,0,0,0,0,0,0,0,0,0,0,0,0,0,0,0,0,0,0,0,0,0,0,0,0,0,0,0,0,0,0,0,0,0,0,0,0,0,0,0,0,0,0,0,0,0,0,0,0,0,0,0,0,0,0,0,0,0,0,0,0,0,0,0,0,0,0,0,0,0,0,0,0,0,0,0,0,0,0,0,0,0,0,0,0,0,0,0,0,0,0,0,0,0,0,0,0,0,0,0,0,0,0,0,0,0,0,0,0,0,0,0,0,0,0,0,0,0,0,0,0,0,0,0,0,0,0,0,0,0,0,0,0,0,0,0,0,0,0,0,0,0,0,0,0,0,0,0,0,0,0,0,0,0,0,0,0,0,0,0,0,0,0,0,0,0,0,0,0,0,0,0,0,0,0,0,0,0,0,0,0,0,0,0,0,0,0,0,0,0,0,0,0,0,0,0,0,0,0,0,0,0,0,0,0,0,0,0,0,0,0,0,0,0,0,0,0,0,0,0,0,0,0,0,0,0,0,0,0,0,0,0,0,0,0,0,0,0,0,0,0,0,0,0,0,0,0,0,0,0,0,0,0,0,0,0,0,0,0,0,0,0,0,0,0,0,0,0,0,0,0,0,0,0,0,0,0,0,0,0,0,0,0,0,0,0,0,0,0,0,0,0,0,0,0,0,0,0,0,0,0,0,0,0,0,0,0,0,0,0,0,0,0,0,0,0,0,0,0,0,0,0,0,0,0,0,0,0,0,0,0,0,0,0,0,0,0,0,0,0,0,0,0,0,0,0,0,0,0,0,0,0,0,0,0,0,0,0,0,0,0,0,0,0,0,0,0,0,0,0,0,0,0,0,0,0,0,0,0,0,0,0],"trees":[{"base_weights":[-1.40115E-2,-6.2046707E-1,3.5295257E-1,-8.142627E-1,-8.425412E-3,5.161671E-2,7.3430043E-1,-1.2957414E0,-5.76343E-1,-1.3098975E-1,7.083834E-1,-2.0542634E-1,2.3212597E-1,5.826474E-1,1.5104874E0,-1.6204236E0,-1.1169926E0,-8.4447396E-1,-4.4620952E-1,-4.1575295E-1,3.4347218E-2,9.3045187E-1,2.1125796E-1,-4.139065E-1,-6.703623E-2,7.518646E-2,4.168121E-1,3.2380822E-1,6.7254966E-1,1.1488765E0,1.7350861E0,-1.19266175E-1,-5.3091485E-2,-4.5149572E-2,-8.354909E-2,-7.056862E-2,-4.699391E-2,-3.7276167E-2,-1.920576E-2,-4.26774E-2,-1.2652252E-2,1.9709507E-2,-4.4463994E-3,6.756584E-2,-0E0,-1.8109608E-3,2.4580076E-2,-3.9665602E-2,-1.9466782E-2,-9.035329E-3,2.0593118E-2,-2.0010178E-3,1.2793561E-2,3.8804375E-2,2.5429407E-2,1.3282436E-2,3.651918E-2,4.1256264E-2,6.323225E-2,4.0503863E-2,8.78207E-2,1.21751174E-1,-0E0],"categories":[],"categories_nodes":[],"categories_segments":[],"categories_sizes":[],"default_left":[0,0,0,0,0,0,0,0,0,0,0,0,0,0,0,0,0,0,0,0,0,0,0,0,0,0,0,0,0,0,0,0,0,0,0,0,0,0,0,0,0,0,0,0,0,0,0,0,0,0,0,0,0,0,0,0,0,0,0,0,0,0,0],"id":0,"left_children":[1,3,5,7,9,11,13,15,17,19,21,23,25,27,29,31,33,35,37,39,41,43,45,47,49,51,53,55,57,59,61,-1,-1,-1,-1,-1,-1,-1,-1,-1,-1,-1,-1,-1,-1,-1,-1,-1,-1,-1,-1,-1,-1,-1,-1,-1,-1,-1,-1,-1,-1,-1,-1],"loss_changes":[8.840447E2,1.7714368E2,2.836954E2,1.26965515E2,3.188116E1,6.445389E1,1.2462665E2,1.4817078E1,2.490065E1,1.5048624E1,4.582159E0,1.6128273E1,2.3288574E1,2.0133636E1,6.8483276E0,4.62146E0,6.365967E0,4.0681763E0,7.0322723E0,4.5892696E0,5.0628314E0,7.401676E-1,9.249981E-1,3.7546272E0,7.9399104E0,5.146639E0,1.5667038E0,5.789608E0,1.0334259E1,1.6739578E0,1.5168152E0,0E0,0E0,0E0,0E0,0E0,0E0,0E0,0E0,0E0,0E0,0E0,0E0,0E0,0E0,0E0,0E0,0E0,0E0,0E0,0E0,0E0,0E0,0E0,0E0,0E0,0E0,0E0,0E0,0E0,0E0,0E0,0E0],"parents":[2147483647,0,0,1,1,2,2,3,3,4,4,5,5,6,6,7,7,8,8,9,9,10,10,11,11,12,12,13,13,14,14,15,15,16,16,17,17,18,18,19,19,20,20,21,21,22,22,23,23,24,24,25,25,26,26,27,27,28,28,29,29,30,30],"right_children":[2,4,6,8,10,12,14,16,18,20,22,24,26,28,30,32,34,36,38,40,42,44,46,48,50,52,54,56,58,60,62,-1,-1,-1,-1,-1,-1,-1,-1,-1,-1,-1,-1,-1,-1,-1,-1,-1,-1,-1,-1,-1,-1,-1,-1,-1,-1,-1,-1,-1,-1,-1,-1],"split_conditions":[-1.0140313E-1,3.364428E-1,4.867252E-3,-1.0802033E0,2.0669603E0,-5.5871725E-1,1.6643105E0,-2.0590036E0,-4.9183348E-1,-8.355033E-1,3.9114106E-1,-9.294306E-1,8.7739706E-1,3.8799697E-1,2.5253425E0,6.8636364E-1,-8.59976E-1,-8.906079E-1,-3.461032E-1,1.318464E0,-1.4181726E0,3.284633E0,-1.0802033E0,6.32697E-1,4.389375E-2,3.8799697E-1,-9.061212E-1,3.198134E-1,1.7480454E-1,6.32697E-1,1.03311825E1,-1.19266175E-1,-5.3091485E-2,-4.5149572E-2,-8.354909E-2,-7.056862E-2,-4.699391E-2,-3.7276167E-2,-1.920576E-2,-4.26774E-2,-1.2652252E-2,1.9709507E-2,-4.4463994E-3,6.756584E-2,-0E0,-1.8109608E-3,2.4580076E-2,-3.9665602E-2,-1.9466782E-2,-9.035329E-3,2.0593118E-2,-2.0010178E-3,1.2793561E-2,3.8804375E-2,2.5429407E-2,1.3282436E-2,3.651918E-2,4.1256264E-2,6.323225E-2,4.0503863E-2,8.78207E-2,1.21751174E-1,-0E0],"split_indices":[0,6,6,0,6,6,6,0,5,0,8,6,0,0,6,5,8,5,0,5,4,2,0,0,5,0,8,5,5,0,34,0,0,0,0,0,0,0,0,0,0,0,0,0,0,0,0,0,0,0,0,0,0,0,0,0,0,0,0,0,0,0,0],"split_type":[0,0,0,0,0,0,0,0,0,0,0,0,0,0,0,0,0,0,0,0,0,0,0,0,0,0,0,0,0,0,0,0,0,0,0,0,0,0,0,0,0,0,0,0,0,0,0,0,0,0,0,0,0,0,0,0,0,0,0,0,0,0,0],"sum_hessian":[3.966E3,1.495E3,2.471E3,1.134E3,3.61E2,1.383E3,1.088E3,3.7E2,7.64E2,3.11E2,5E1,5.69E2,8.14E2,9.15E2,1.73E2,1.22E2,2.48E2,2.43E2,5.21E2,1.14E2,1.97E2,3.2E1,1.8E1,2.23E2,3.46E2,4.44E2,3.7E2,2.41E2,6.74E2,7.4E1,9.9E1,1.07E2,1.5E1,4.2E1,2.06E2,1.13E2,1.3E2,3.36E2,1.85E2,5.8E1,5.6E1,5.6E1,1.41E2,3E1,2E0,6E0,1.2E1,9.7E1,1.26E2,2.98E2,4.8E1,2.25E2,2.19E2,8.9E1,2.81E2,1.5E2,9.1E1,5.12E2,1.62E2,1.6E1,5.8E1,9.8E1,1E0],"tree_param":{"num_deleted":"0","num_feature":"43","num_nodes":"63","size_leaf_vector":"1"}},{"base_weights":[8.5925765E-4,-5.639165E-1,3.374243E-1,-9.2084014E-1,-2.0161656E-1,2.1213163E-1,1.1021142E0,-1.2561641E0,-7.021963E-1,-6.484431E-1,-1.1936445E-1,-2.078156E-1,3.3619845E-1,7.9793435E-1,1.5299629E0,-1.1720516E-1,-1.1539513E0,-1.2628862E0,-6.6449875E-1,-6.7324007E-1,2.350696E-3,-1.814648E-1,5.333975E-1,-3.3818337E-1,-3.2427765E-2,6.865651E-2,4.3983415E-1,4.440369E-1,9.3185943E-1,1.0775255E-1,1.0292009E-3,-8.276341E-2,-4.1382518E-2,-0E0,-9.045266E-2,-5.6546498E-2,-3.675621E-2,-5.2018277E-2,-1.7297274E-2,-1.7163994E-2,1.1212265E-2,5.0482426E-2,-2.6271138E-2,-3.126535E-2,-1.6578099E-2,-1.5055827E-2,3.4204465E-3,-1.0406069E-2,1.1646985E-2,1.999421E-2,3.6380276E-2,4.165515E-3,3.4821346E-2,8.242098E-2,5.6476977E-2],"categories":[],"categories_nodes":[],"categories_segments":[],"categories_sizes":[],"default_left":[0,0,0,0,0,0,0,0,0,0,0,0,0,0,0,0,0,0,0,0,0,0,0,0,0,0,0,0,0,0,0,0,0,0,0,0,0,0,0,0,0,0,0,0,0,0,0,0,0,0,0,0,0,0,0],"id":1,"left_children":[1,3,5,7,9,11,13,15,17,19,21,23,25,27,29,-1,31,33,35,37,-1,39,41,43,45,47,49,51,53,-1,-1,-1,-1,-1,-1,-1,-1,-1,-1,-1,-1,-1,-1,-1,-1,-1,-1,-1,-1,-1,-1,-1,-1,-1,-1],"loss_changes":[7.5862177E2,1.9144815E2,2.3823929E2,5.120044E1,2.6652332E1,1.1249608E2,4.0767883E1,5.4226685E0,6.179077E0,2.3782806E0,2.571664E1,1.0990309E1,4.5766922E1,8.026825E0,2.6496582E0,0E0,1.6048279E0,5.8862686E-1,6.8110046E0,2.3338203E0,0E0,1.3085424E1,1.0549109E1,2.3820915E0,3.3500469E0,1.0179788E1,1.4175354E1,9.682617E-1,6.148987E-1,0E0,0E0,0E0,0E0,0E0,0E0,0E0,0E0,0E0,0E0,0E0,0E0,0E0,0E0,0E0,0E0,0E0,0E0,0E0,0E0,0E0,0E0,0E0,0E0,0E0,0E0],"parents":[2147483647,0,0,1,1,2,2,3,3,4,4,5,5,6,6,7,7,8,8,9,9,10,10,11,11,12,12,13,13,14,14,16,16,17,17,18,18,19,19,21,21,22,22,23,23,24,24,25,25,26,26,27,27,28,28],"right_children":[2,4,6,8,10,12,14,16,18,20,22,24,26,28,30,-1,32,34,36,38,-1,40,42,44,46,48,50,52,54,-1,-1,-1,-1,-1,-1,-1,-1,-1,-1,-1,-1,-1,-1,-1,-1,-1,-1,-1,-1,-1,-1,-1,-1,-1,-1],"split_conditions":[-1.0140313E-1,-3.1025353E-1,7.525167E-1,-1.0802033E0,-1.3249034E0,-5.987803E-1,1.502055E0,-1.0315704E0,-1.0315704E0,1.1899085E1,1.3848411E0,8.7739706E-1,3.8799697E-1,3.8799697E-1,5.6749873E0,-1.1720516E-1,4.29766E0,-1.1680067E0,-5.908032E-1,4.209293E0,2.350696E-3,6.116365E-2,5.5233965E0,-9.006694E-1,-9.006694E-1,-5.779264E-2,-2.8320417E-1,9.125859E-1,3.0273095E-1,1.0775255E-1,1.0292009E-3,-8.276341E-2,-4.1382518E-2,-0E0,-9.045266E-2,-5.6546498E-2,-3.675621E-2,-5.2018277E-2,-1.7297274E-2,-1.7163994E-2,1.1212265E-2,5.0482426E-2,-2.6271138E-2,-3.126535E-2,-1.6578099E-2,-1.5055827E-2,3.4204465E-3,-1.0406069E-2,1.1646985E-2,1.999421E-2,3.6380276E-2,4.165515E-3,3.4821346E-2,8.242098E-2,5.6476977E-2],"split_indices":[0,7,7,0,0,7,7,7,7,32,7,0,0,0,17,0,23,8,0,40,0,8,7,7,7,7,7,7,14,0,0,0,0,0,0,0,0,0,0,0,0,0,0,0,0,0,0,0,0,0,0,0,0,0,0],"split_type":[0,0,0,0,0,0,0,0,0,0,0,0,0,0,0,0,0,0,0,0,0,0,0,0,0,0,0,0,0,0,0,0,0,0,0,0,0,0,0,0,0,0,0,0,0,0,0,0,0,0,0,0,0,0,0],"sum_hessian":[3.986E3,1.487E3,2.499E3,7.46E2,7.41E2,2.151E3,3.48E2,2.88E2,4.58E2,1.11E2,6.3E2,4.89E2,1.662E3,2.09E2,1.39E2,4.6E1,2.42E2,2.2E1,4.36E2,1.08E2,3E0,5.78E2,5.2E1,2.77E2,2.12E2,4.67E2,1.195E3,6.2E1,1.47E2,1.37E2,2E0,2.24E2,1.8E1,1E0,2.1E1,2.01E2,2.35E2,8.9E1,1.9E1,4.88E2,9E1,4.4E1,8E0,1.24E2,1.53E2,6.6E1,1.46E2,1.43E2,3.24E2,4.26E2,7.69E2,1E1,5.2E1,3.8E1,1.09E2],"tree_param":{"num_deleted":"0","num_feature":"43","num_nodes":"55","size_leaf_vector":"1"}},{"base_weights":[8.742068E-3,-5.208699E-1,3.2135627E-1,-8.681341E-1,-1.7265844E-1,2.227425E-1,1.1829553E0,-1.1849437E0,-6.3185894E-1,-3.4374517E-1,7.381971E-2,-2.0191754E-1,3.3518025E-1,1.508196E0,8.825638E-1,-9.828874E-2,-1.0035133E0,-8.6245304E-1,-5.507652E-1,-6.348822E-1,-2.3932853E-1,-5.8273263E-2,7.038269E-1,-3.2772338E-1,-3.1867847E-2,7.468044E-2,4.3391007E-1,1.589535E0,4.601151E-2,5.184132E-1,1.0264716E0,-8.117029E-2,-5.743498E-2,-6.374648E-2,-3.1426888E-2,-4.8570205E-2,-2.9691966E-2,-4.5933906E-2,2.2667637E-3,-2.3985686E-2,-7.687834E-3,-2.8535184E-2,2.7506896E-3,2.437142E-2,5.6492005E-2,-3.153131E-2,-1.6624236E-2,-1.2254751E-2,2.3597903E-3,-1.0884083E-2,1.21438205E-2,1.8566908E-2,3.6397602E-2,1.12410806E-1,9.996606E-4,1.1014112E-2,4.092055E-2,7.197285E-2,-0E0],"categories":[],"categories_nodes":[],"categories_segments":[],"categories_sizes":[],"default_left":[0,0,0,0,0,0,0,0,0,0,0,0,0,0,0,0,0,0,0,0,0,0,0,0,0,0,0,0,0,0,0,0,0,0,0,0,0,0,0,0,0,0,0,0,0,0,0,0,0,0,0,0,0,0,0,0,0,0,0],"id":2,"left_children":[1,3,5,7,9,11,13,15,17,19,21,23,25,27,29,-1,31,33,35,37,39,41,43,45,47,49,51,53,-1,55,57,-1,-1,-1,-1,-1,-1,-1,-1,-1,-1,-1,-1,-1,-1,-1,-1,-1,-1,-1,-1,-1,-1,-1,-1,-1,-1,-1,-1],"loss_changes":[6.589466E2,1.7752472E2,2.111377E2,5.199475E1,3.1519232E1,1.07747116E2,1.9750946E1,7.253479E0,5.8267517E0,1.2408154E1,2.5877867E1,9.846767E0,4.5427017E1,3.7664185E0,4.927147E0,0E0,1.3769073E0,2.6880646E-1,4.452194E0,2.29311E0,4.0836983E0,8.991574E0,5.3069115E-1,2.264799E0,2.0530038E0,1.147895E1,1.8259338E1,2.9674072E0,0E0,4.4927692E-1,2.9647064E-1,0E0,0E0,0E0,0E0,0E0,0E0,0E0,0E0,0E0,0E0,0E0,0E0,0E0,0E0,0E0,0E0,0E0,0E0,0E0,0E0,0E0,0E0,0E0,0E0,0E0,0E0,0E0,0E0],"parents":[2147483647,0,0,1,1,2,2,3,3,4,4,5,5,6,6,7,7,8,8,9,9,10,10,11,11,12,12,13,13,14,14,16,16,17,17,18,18,19,19,20,20,21,21,22,22,23,23,24,24,25,25,26,26,27,27,29,29,30,30],"right_children":[2,4,6,8,10,12,14,16,18,20,22,24,26,28,30,-1,32,34,36,38,40,42,44,46,48,50,52,54,-1,56,58,-1,-1,-1,-1,-1,-1,-1,-1,-1,-1,-1,-1,-1,-1,-1,-1,-1,-1,-1,-1,-1,-1,-1,-1,-1,-1,-1,-1],"split_conditions":[-1.0140313E-1,-3.1025353E-1,1.1143472E0,-1.0802033E0,1.0388157E0,-6.077967E-1,3.0273095E-1,-1.8143035E0,-8.906079E-1,-8.355033E-1,1.3848411E0,8.7739706E-1,3.8799697E-1,2.9101117E0,3.8799697E-1,-9.828874E-2,-7.70093E-1,2.156467E0,-5.908032E-1,1.1899085E1,-3.461032E-1,-1.3249034E0,1.502055E0,3.8799697E-1,-1.069855E0,-5.779264E-2,-4.835855E-1,5.6749873E0,4.601151E-2,1.3577917E0,1.955426E0,-8.117029E-2,-5.743498E-2,-6.374648E-2,-3.1426888E-2,-4.8570205E-2,-2.9691966E-2,-4.5933906E-2,2.2667637E-3,-2.3985686E-2,-7.687834E-3,-2.8535184E-2,2.7506896E-3,2.437142E-2,5.6492005E-2,-3.153131E-2,-1.6624236E-2,-1.2254751E-2,2.3597903E-3,-1.0884083E-2,1.21438205E-2,1.8566908E-2,3.6397602E-2,1.12410806E-1,9.996606E-4,1.1014112E-2,4.092055E-2,7.197285E-2,-0E0],"split_indices":[0,7,7,0,5,7,14,0,5,0,7,0,0,30,0,0,7,24,0,32,0,0,7,0,5,7,5,17,0,7,2,0,0,0,0,0,0,0,0,0,0,0,0,0,0,0,0,0,0,0,0,0,0,0,0,0,0,0,0],"split_type":[0,0,0,0,0,0,0,0,0,0,0,0,0,0,0,0,0,0,0,0,0,0,0,0,0,0,0,0,0,0,0,0,0,0,0,0,0,0,0,0,0,0,0,0,0,0,0,0,0,0,0,0,0,0,0,0,0,0,0],"sum_hessian":[3.975E3,1.474E3,2.501E3,7.35E2,7.39E2,2.248E3,2.53E2,3.08E2,4.27E2,4.37E2,3.02E2,4.69E2,1.779E3,1.15E2,1.38E2,1.27E2,1.81E2,1.02E2,3.25E2,1.1E2,3.27E2,2.51E2,5.1E1,2.66E2,2.03E2,4.92E2,1.287E3,1.02E2,1.3E1,4.4E1,9.4E1,8.5E1,9.6E1,8.6E1,1.6E1,1.41E2,1.84E2,1.07E2,3E0,1.75E2,1.52E2,5.4E1,1.97E2,1.6E1,3.5E1,1.03E2,1.63E2,6.5E1,1.38E2,1.46E2,3.46E2,4.52E2,8.35E2,1E2,2E0,1E1,3.4E1,9.3E1,1E0],"tree_param":{"num_deleted":"0","num_feature":"43","num_nodes":"59","size_leaf_vector":"1"}},{"base_weights":[1.4876475E-3,-3.6948225E-1,3.3130568E-1,-5.5174214E-1,5.3864643E-2,2.1837844E-1,9.707348E-1,-1.0446808E0,-4.6559772E-1,9.5063746E-2,-4.5690757E-1,2.500055E-1,-1.0175002E-1,6.057543E-1,1.2428609E0,-1.399612E0,-8.001345E-1,-3.797497E-1,-6.675532E-1,1.23594955E-1,-1.2896727E-1,-5.246149E-1,-0E0,2.5770646E-1,-3.837456E-2,1.19046904E-1,-2.4326989E-1,1.1837412E-1,6.9213116E-1,7.2625145E-2,1.4540074E0,-7.6262085E-3,-1.0038887E-1,-0E0,-5.6729436E-2,-3.6537793E-2,-1.8729534E-2,-5.1631264E-2,-2.737762E-2,1.8754533E-3,1.4979425E-2,-1.906166E-2,2.4636166E-2,-1.7065536E-2,-5.4260284E-2,3.1920064E-3,-1.8691197E-3,1.0573555E-2,2.3010062E-2,2.4187693E-3,2.594581E-2,-3.408798E-2,-3.283468E-4,3.6155578E-2,-3.2593932E-3,8.052824E-2,4.053733E-2,1.0291927E-1,7.349676E-3],"categories":[],"categories_nodes":[],"categories_segments":[],"categories_sizes":[],"default_left":[0,0,0,0,0,0,0,0,0,0,0,0,0,0,0,0,0,0,0,0,0,0,0,0,0,0,0,0,0,0,0,0,0,0,0,0,0,0,0,0,0,0,0,0,0,0,0,0,0,0,0,0,0,0,0,0,0,0,0],"id":3,"left_children":[1,3,5,7,9,11,13,15,17,19,21,23,25,27,29,31,33,35,37,39,41,43,45,47,-1,49,51,53,55,-1,57,-1,-1,-1,-1,-1,-1,-1,-1,-1,-1,-1,-1,-1,-1,-1,-1,-1,-1,-1,-1,-1,-1,-1,-1,-1,-1,-1,-1],"loss_changes":[4.9020767E2,1.4582013E2,1.5189151E2,5.370096E1,1.1875208E1,1.846643E1,2.8202179E1,1.2211517E1,1.82137E1,3.428966E0,1.4052649E0,1.0391342E1,5.246567E0,5.246914E0,1.6799927E0,2.579956E0,1.4919891E0,1.1973343E1,5.175995E0,4.026524E0,4.3380003E0,1.4563799E0,1.716582E-2,1.2142639E1,0E0,1.0809661E0,5.6743383E0,2.0665278E0,3.1013603E0,0E0,1.0733795E0,0E0,0E0,0E0,0E0,0E0,0E0,0E0,0E0,0E0,0E0,0E0,0E0,0E0,0E0,0E0,0E0,0E0,0E0,0E0,0E0,0E0,0E0,0E0,0E0,0E0,0E0,0E0,0E0],"parents":[2147483647,0,0,1,1,2,2,3,3,4,4,5,5,6,6,7,7,8,8,9,9,10,10,11,11,12,12,13,13,14,14,15,15,16,16,17,17,18,18,19,19,20,20,21,21,22,22,23,23,25,25,26,26,27,27,28,28,30,30],"right_children":[2,4,6,8,10,12,14,16,18,20,22,24,26,28,30,32,34,36,38,40,42,44,46,48,-1,50,52,54,56,-1,58,-1,-1,-1,-1,-1,-1,-1,-1,-1,-1,-1,-1,-1,-1,-1,-1,-1,-1,-1,-1,-1,-1,-1,-1,-1,-1,-1,-1],"split_conditions":[-1.892563E-1,-5.779264E-2,1.6330003E0,-9.6845514E-1,2.1381922E-1,3.1416485E0,1.502055E0,-4.4175476E-1,-4.8697546E-1,-4.1869122E-1,1.5776956E0,1.502055E0,-4.835855E-1,6.184419E-1,2.713204E0,3.0273095E-1,-1.1307515E0,-6.52648E-1,-1.4795725E-1,-4.3441555E-1,2.1807606E0,4.389375E-2,2.5874207E0,2.1270117E-1,-3.837456E-2,2.7723733E-2,3.4794807E-1,3.4175044E-1,1.0649979E0,7.2625145E-2,2.9101117E0,-7.6262085E-3,-1.0038887E-1,-0E0,-5.6729436E-2,-3.6537793E-2,-1.8729534E-2,-5.1631264E-2,-2.737762E-2,1.8754533E-3,1.4979425E-2,-1.906166E-2,2.4636166E-2,-1.7065536E-2,-5.4260284E-2,3.1920064E-3,-1.8691197E-3,1.0573555E-2,2.3010062E-2,2.4187693E-3,2.594581E-2,-3.408798E-2,-3.283468E-4,3.6155578E-2,-3.2593932E-3,8.052824E-2,4.053733E-2,1.0291927E-1,7.349676E-3],"split_indices":[6,7,6,7,7,39,7,3,5,6,3,7,5,7,6,14,7,6,7,6,5,5,3,7,0,6,7,12,5,0,30,0,0,0,0,0,0,0,0,0,0,0,0,0,0,0,0,0,0,0,0,0,0,0,0,0,0,0,0],"split_type":[0,0,0,0,0,0,0,0,0,0,0,0,0,0,0,0,0,0,0,0,0,0,0,0,0,0,0,0,0,0,0,0,0,0,0,0,0,0,0,0,0,0,0,0,0,0,0,0,0,0,0,0,0,0,0,0,0,0,0],"sum_hessian":[4.001E3,1.882E3,2.119E3,1.316E3,5.66E2,1.805E3,3.14E2,1.9E2,1.126E3,5.27E2,3.9E1,1.645E3,1.6E2,1.39E2,1.75E2,7.1E1,1.19E2,7.98E2,3.28E2,4.71E2,5.6E1,3.4E1,5E0,1.632E3,1.3E1,6.1E1,9.9E1,2.3E1,1.16E2,1E2,7.5E1,3E0,6.8E1,2E0,1.17E2,3.39E2,4.59E2,2.53E2,7.5E1,2.34E2,2.37E2,4.5E1,1.1E1,2E1,1.4E1,4E0,1E0,6.71E2,9.61E2,5E1,1.1E1,4.6E1,5.3E1,6E0,1.7E1,1.6E1,1E2,7.3E1,2E0],"tree_param":{"num_deleted":"0","num_feature":"43","num_nodes":"59","size_leaf_vector":"1"}},{"base_weights":[2.7779883E-3,-4.7452903E-1,2.8608516E-1,-7.670483E-1,-1.9545795E-1,4.839651E-2,5.832075E-1,-1.1233692E0,-5.951503E-1,-2.59513E-1,3.7398097E-1,-1.18887685E-1,2.0660828E-1,4.6658722E-1,1.1833454E0,-1.3267194E0,-9.4454044E-1,-7.670368E-1,-4.6689898E-1,-6.2499267E-1,-1.9016875E-1,-2.6804093E-2,5.8810395E-1,-1.9085494E-1,1.615876E-1,7.676488E-2,3.31055E-1,3.4947097E-1,6.277022E-1,9.962954E-1,1.55349E0,-9.296388E-2,-0E0,-6.7899056E-2,-2.7414441E-2,-5.3734813E-2,-3.575217E-4,-3.6706194E-2,-1.9677563E-2,-4.8155725E-2,-1.5631786E-2,-1.6491093E-2,1.3000503E-2,-1.4283335E-2,6.8874084E-3,-0E0,4.241878E-2,-2.4172898E-2,-4.493106E-3,1.6454823E-2,-1.0609184E-2,-3.4231322E-3,8.376955E-3,2.498064E-2,7.916847E-3,1.5307772E-2,3.2600213E-2,3.8751334E-2,5.7567403E-2,2.9007224E-2,7.2878145E-2,1.1534263E-1,3.864983E-2],"categories":[],"categories_nodes":[],"categories_segments":[],"categories_sizes":[],"default_left":[0,0,0,0,0,0,0,0,0,0,0,0,0,0,0,0,0,0,0,0,0,0,0,0,0,0,0,0,0,0,0,0,0,0,0,0,0,0,0,0,0,0,0,0,0,0,0,0,0,0,0,0,0,0,0,0,0,0,0,0,0,0,0],"id":4,"left_children":[1,3,5,7,9,11,13,15,17,19,21,23,25,27,29,31,33,35,37,39,41,43,45,47,49,51,53,55,57,59,61,-1,-1,-1,-1,-1,-1,-1,-1,-1,-1,-1,-1,-1,-1,-1,-1,-1,-1,-1,-1,-1,-1,-1,-1,-1,-1,-1,-1,-1,-1,-1,-1],"loss_changes":[5.414216E2,1.2069287E2,1.7707152E2,4.151056E1,2.8215246E1,3.7198647E1,7.552176E1,3.4802856E0,9.18364E0,1.6726593E1,7.0661917E0,1.38487425E1,1.1360655E1,1.6516342E1,6.422821E0,3.3335876E-1,3.2621002E-1,2.1302032E-1,2.3406448E0,1.87006E0,1.0477331E1,7.686262E-1,5.5555725E-1,1.0439276E1,3.4073598E0,2.0310264E0,1.7919006E0,7.7916183E0,3.3800201E0,1.5782166E0,1.5500183E0,0E0,0E0,0E0,0E0,0E0,0E0,0E0,0E0,0E0,0E0,0E0,0E0,0E0,0E0,0E0,0E0,0E0,0E0,0E0,0E0,0E0,0E0,0E0,0E0,0E0,0E0,0E0,0E0,0E0,0E0,0E0,0E0],"parents":[2147483647,0,0,1,1,2,2,3,3,4,4,5,5,6,6,7,7,8,8,9,9,10,10,11,11,12,12,13,13,14,14,15,15,16,16,17,17,18,18,19,19,20,20,21,21,22,22,23,23,24,24,25,25,26,26,27,27,28,28,29,29,30,30],"right_children":[2,4,6,8,10,12,14,16,18,20,22,24,26,28,30,32,34,36,38,40,42,44,46,48,50,52,54,56,58,60,62,-1,-1,-1,-1,-1,-1,-1,-1,-1,-1,-1,-1,-1,-1,-1,-1,-1,-1,-1,-1,-1,-1,-1,-1,-1,-1,-1,-1,-1,-1,-1,-1],"split_conditions":[-1.0140313E-1,-3.1025353E-1,2.0522377E-2,-1.3249034E0,1.6330003E0,-4.3441555E-1,1.6643105E0,-2.0590036E0,-6.5139556E-1,-1.3249034E0,1.3848411E0,-5.779264E-2,8.7739706E-1,8.7739706E-1,3.010651E0,4.209293E0,4.29766E0,4.223806E0,-2.4561475E-1,4.209293E0,4.209293E0,-1.0802033E0,-1.3249034E0,6.32697E-1,-4.397383E-1,1.4329691E-1,3.1416485E0,3.9843708E-1,7.5631326E-1,1.4329691E-1,-4.126775E-2,-9.296388E-2,-0E0,-6.7899056E-2,-2.7414441E-2,-5.3734813E-2,-3.575217E-4,-3.6706194E-2,-1.9677563E-2,-4.8155725E-2,-1.5631786E-2,-1.6491093E-2,1.3000503E-2,-1.4283335E-2,6.8874084E-3,-0E0,4.241878E-2,-2.4172898E-2,-4.493106E-3,1.6454823E-2,-1.0609184E-2,-3.4231322E-3,8.376955E-3,2.498064E-2,7.916847E-3,1.5307772E-2,3.2600213E-2,3.8751334E-2,5.7567403E-2,2.9007224E-2,7.2878145E-2,1.1534263E-1,3.864983E-2],"split_indices":[0,7,6,0,6,6,6,0,6,0,7,7,0,0,6,40,23,1,6,40,40,0,0,0,6,0,39,6,6,0,1,0,0,0,0,0,0,0,0,0,0,0,0,0,0,0,0,0,0,0,0,0,0,0,0,0,0,0,0,0,0,0,0],"split_type":[0,0,0,0,0,0,0,0,0,0,0,0,0,0,0,0,0,0,0,0,0,0,0,0,0,0,0,0,0,0,0,0,0,0,0,0,0,0,0,0,0,0,0,0,0,0,0,0,0,0,0,0,0,0,0,0,0,0,0,0,0,0,0],"sum_hessian":[3.999E3,1.488E3,2.511E3,7.23E2,7.65E2,1.398E3,1.113E3,2.29E2,4.94E2,6.9E2,7.5E1,6.78E2,7.2E2,9.37E2,1.76E2,9.7E1,1.32E2,2.03E2,2.91E2,1.05E2,5.85E2,2.6E1,4.9E1,5.42E2,1.36E2,3.57E2,3.63E2,5.5E2,3.87E2,1.25E2,5.1E1,9.6E1,1E0,1.22E2,1E1,2.01E2,2E0,2.13E2,7.8E1,8.7E1,1.8E1,5.23E2,6.2E1,1.2E1,1.4E1,2E0,4.7E1,2.38E2,3.04E2,1.12E2,2.4E1,8.8E1,2.69E2,3.18E2,4.5E1,2.69E2,2.81E2,2.95E2,9.2E1,1.3E1,1.12E2,4.4E1,7E0],"tree_param":{"num_deleted":"0","num_feature":"43","num_nodes":"63","size_leaf_vector":"1"}},{"base_weights":[3.0643886E-3,-4.4054428E-1,2.6266348E-1,-7.256984E-1,-1.586276E-1,1.6903518E-1,8.5029715E-1,-1.0102593E0,-5.316837E-1,-2.8483093E-1,5.7147473E-2,-1.5951362E-1,2.6224083E-1,6.324645E-1,1.1561135E0,-9.5735066E-2,-9.2913693E-1,-7.2423816E-2,-5.029449E-1,-5.8153546E-1,-2.111018E-1,-5.5648565E-2,5.5916697E-1,-2.3165512E-1,7.68573E-2,1.0075904E-1,3.825751E-1,5.851952E-2,4.595325E-1,8.1126414E-2,7.5712283E-3,-6.668757E-2,-2.619811E-2,-3.9178222E-2,-2.3194244E-2,-4.2042617E-2,2.7524491E-3,-1.223196E-2,-3.967714E-2,-1.5776556E-2,9.514852E-3,4.084153E-2,-0E0,-2.289848E-2,-1.0034318E-2,-5.752721E-3,9.528849E-3,9.482339E-3,-2.6388856E-2,1.7330615E-2,3.32099E-2,3.3904452E-2,-0E0],"categories":[],"categories_nodes":[],"categories_segments":[],"categories_sizes":[],"default_left":[0,0,0,0,0,0,0,0,0,0,0,0,0,0,0,0,0,0,0,0,0,0,0,0,0,0,0,0,0,0,0,0,0,0,0,0,0,0,0,0,0,0,0,0,0,0,0,0,0,0,0,0,0],"id":5,"left_children":[1,3,5,7,9,11,13,15,17,19,21,23,25,27,29,-1,31,-1,33,35,37,39,41,43,45,47,49,-1,51,-1,-1,-1,-1,-1,-1,-1,-1,-1,-1,-1,-1,-1,-1,-1,-1,-1,-1,-1,-1,-1,-1,-1,-1],"loss_changes":[4.5992566E2,1.1761835E2,1.3766745E2,3.7883026E1,2.0495113E1,6.69037E1,1.9803345E1,3.5839539E0,4.0254135E0,9.513512E0,1.6014254E1,8.361214E0,3.2628365E1,5.612541E0,1.1993408E-1,0E0,2.0582428E0,0E0,3.2215958E0,1.655016E0,4.1599007E0,7.594221E0,5.8374214E-1,2.7410069E0,1.1437964E0,1.2418301E1,1.1457138E1,0E0,1.4814758E0,0E0,0E0,0E0,0E0,0E0,0E0,0E0,0E0,0E0,0E0,0E0,0E0,0E0,0E0,0E0,0E0,0E0,0E0,0E0,0E0,0E0,0E0,0E0,0E0],"parents":[2147483647,0,0,1,1,2,2,3,3,4,4,5,5,6,6,7,7,8,8,9,9,10,10,11,11,12,12,13,13,14,14,16,16,18,18,19,19,20,20,21,21,22,22,23,23,24,24,25,25,26,26,28,28],"right_children":[2,4,6,8,10,12,14,16,18,20,22,24,26,28,30,-1,32,-1,34,36,38,40,42,44,46,48,50,-1,52,-1,-1,-1,-1,-1,-1,-1,-1,-1,-1,-1,-1,-1,-1,-1,-1,-1,-1,-1,-1,-1,-1,-1,-1],"split_conditions":[-1.0140313E-1,-3.1025353E-1,7.525167E-1,-1.0802033E0,1.1153482E0,-6.077967E-1,1.502055E0,-4.4175476E-1,-4.4175476E-1,-1.0802033E0,1.3577917E0,1.1220971E0,6.32697E-1,-3.218647E-1,1.6610204E0,-9.5735066E-2,4.29766E0,-7.2423816E-2,-3.461032E-1,1.1899085E1,3.1416485E0,-2.6394448E-1,5.6749873E0,-1.069855E0,-1.2611861E0,3.1416485E0,-4.835855E-1,5.851952E-2,1.5241927E0,8.1126414E-2,7.5712283E-3,-6.668757E-2,-2.619811E-2,-3.9178222E-2,-2.3194244E-2,-4.2042617E-2,2.7524491E-3,-1.223196E-2,-3.967714E-2,-1.5776556E-2,9.514852E-3,4.084153E-2,-0E0,-2.289848E-2,-1.0034318E-2,-5.752721E-3,9.528849E-3,9.482339E-3,-2.6388856E-2,1.7330615E-2,3.32099E-2,3.3904452E-2,-0E0],"split_indices":[0,7,7,0,5,7,7,3,3,0,7,0,0,1,1,0,23,0,0,32,39,8,17,5,5,39,5,0,5,0,0,0,0,0,0,0,0,0,0,0,0,0,0,0,0,0,0,0,0,0,0,0,0],"split_type":[0,0,0,0,0,0,0,0,0,0,0,0,0,0,0,0,0,0,0,0,0,0,0,0,0,0,0,0,0,0,0,0,0,0,0,0,0,0,0,0,0,0,0,0,0,0,0,0,0,0,0,0,0],"sum_hessian":[3.989E3,1.471E3,2.518E3,7.28E2,7.43E2,2.176E3,3.42E2,2.89E2,4.39E2,4.7E2,2.73E2,4.79E2,1.697E3,2.06E2,1.36E2,4.3E1,2.46E2,1.7E1,4.22E2,8.8E1,3.82E2,2.24E2,4.9E1,3.69E2,1.1E2,7.29E2,9.68E2,8.7E1,1.19E2,1.34E2,2E0,2.31E2,1.5E1,3.05E2,1.17E2,8.6E1,2E0,3.53E2,2.9E1,1.2E2,1.04E2,4.6E1,3E0,1.68E2,2.01E2,2.7E1,8.3E1,6.82E2,4.7E1,4.07E2,5.61E2,1.12E2,7E0],"tree_param":{"num_deleted":"0","num_feature":"43","num_nodes":"53","size_leaf_vector":"1"}},{"base_weights":[5.497433E-4,-2.3567012E-1,2.8155228E-1,9.1119476E-2,-3.922824E-1,8.8066494E-1,1.9762288E-1,-1.5868813E-1,2.8254658E-1,-8.742824E-1,-3.3327663E-1,4.9812782E-1,1.0860593E0,4.3892395E-1,1.0817411E-1,-7.7658385E-1,-7.959579E-2,2.3563668E-1,4.8922005E-1,-1.1692343E0,-6.801257E-1,-1.8381882E-1,-4.2028528E-1,6.2507415E-1,1.5255909E-1,1.3278694E0,7.6235634E-1,3.660796E-1,7.1263415E-1,1.2506363E-2,2.6390696E-1,-6.733843E-2,-2.6825374E-2,3.202707E-3,-1.0829633E-2,2.7867325E-3,1.8716006E-2,6.3380925E-3,3.6688372E-2,-0E0,-8.241273E-2,-0E0,-4.8165653E-2,-2.2251097E-2,-3.9571966E-3,-3.3101186E-2,-6.6581047E-3,4.538245E-2,9.464034E-3,1.5250266E-2,-1.1557966E-2,9.398301E-2,6.387467E-3,5.592971E-2,-0E0,1.6309842E-2,2.9099211E-2,5.1748216E-2,-7.762748E-3,9.925443E-3,-2.6071556E-3,1.1793412E-2,3.650807E-2],"categories":[],"categories_nodes":[],"categories_segments":[],"categories_sizes":[],"default_left":[0,0,0,0,0,0,0,0,0,0,0,0,0,0,0,0,0,0,0,0,0,0,0,0,0,0,0,0,0,0,0,0,0,0,0,0,0,0,0,0,0,0,0,0,0,0,0,0,0,0,0,0,0,0,0,0,0,0,0,0,0,0,0],"id":6,"left_children":[1,3,5,7,9,11,13,15,17,19,21,23,25,27,29,31,33,35,37,39,41,43,45,47,49,51,53,55,57,59,61,-1,-1,-1,-1,-1,-1,-1,-1,-1,-1,-1,-1,-1,-1,-1,-1,-1,-1,-1,-1,-1,-1,-1,-1,-1,-1,-1,-1,-1,-1,-1,-1],"loss_changes":[2.6784494E2,1.1241068E2,9.1564896E1,3.4195885E1,4.0610565E1,1.5163681E1,3.453925E1,1.4398741E1,3.1569824E0,5.7078857E0,1.6668121E1,2.9791317E0,7.0274353E0,7.292282E0,1.7535343E1,6.390228E-1,2.7345004E0,1.9678326E0,5.324478E-1,4.9996948E-1,1.1436882E0,8.262222E0,1.4401184E1,4.5612335E-2,7.246861E-1,8.1059265E-1,1.7991524E0,1.7254486E0,2.7883987E0,4.8945894E0,1.0400089E1,0E0,0E0,0E0,0E0,0E0,0E0,0E0,0E0,0E0,0E0,0E0,0E0,0E0,0E0,0E0,0E0,0E0,0E0,0E0,0E0,0E0,0E0,0E0,0E0,0E0,0E0,0E0,0E0,0E0,0E0,0E0,0E0],"parents":[2147483647,0,0,1,1,2,2,3,3,4,4,5,5,6,6,7,7,8,8,9,9,10,10,11,11,12,12,13,13,14,14,15,15,16,16,17,17,18,18,19,19,20,20,21,21,22,22,23,23,24,24,25,25,26,26,27,27,28,28,29,29,30,30],"right_children":[2,4,6,8,10,12,14,16,18,20,22,24,26,28,30,32,34,36,38,40,42,44,46,48,50,52,54,56,58,60,62,-1,-1,-1,-1,-1,-1,-1,-1,-1,-1,-1,-1,-1,-1,-1,-1,-1,-1,-1,-1,-1,-1,-1,-1,-1,-1,-1,-1,-1,-1,-1,-1],"split_conditions":[1.2253657E-1,-6.398746E-1,3.0273095E-1,-5.987803E-1,-9.6845514E-1,1.1143472E0,-2.657453E-1,-9.6845514E-1,4.389375E-2,-4.4175476E-1,-7.868067E-2,4.216308E-2,-3.7798408E-1,9.125859E-1,1.5776956E0,-4.4175476E-1,-1.0140039E0,6.275543E-1,8.360384E-1,3.0273095E-1,-1.3034804E0,-5.8255064E-1,-5.779264E-2,2.9101117E0,1.5311975E0,5.6749873E0,5.6749873E0,2.1270117E-1,2.4668164E0,1.081969E-1,4.209293E0,-6.733843E-2,-2.6825374E-2,3.202707E-3,-1.0829633E-2,2.7867325E-3,1.8716006E-2,6.3380925E-3,3.6688372E-2,-0E0,-8.241273E-2,-0E0,-4.8165653E-2,-2.2251097E-2,-3.9571966E-3,-3.3101186E-2,-6.6581047E-3,4.538245E-2,9.464034E-3,1.5250266E-2,-1.1557966E-2,9.398301E-2,6.387467E-3,5.592971E-2,-0E0,1.6309842E-2,2.9099211E-2,5.1748216E-2,-7.762748E-3,9.925443E-3,-2.6071556E-3,1.1793412E-2,3.650807E-2],"split_indices":[7,1,14,7,7,7,1,7,5,3,1,1,1,7,3,3,1,8,8,14,5,7,7,30,1,17,17,7,7,1,40,0,0,0,0,0,0,0,0,0,0,0,0,0,0,0,0,0,0,0,0,0,0,0,0,0,0,0,0,0,0,0,0],"split_type":[0,0,0,0,0,0,0,0,0,0,0,0,0,0,0,0,0,0,0,0,0,0,0,0,0,0,0,0,0,0,0,0,0,0,0,0,0,0,0,0,0,0,0,0,0,0,0,0,0,0,0,0,0,0,0,0,0,0,0,0,0,0,0],"sum_hessian":[4.029E3,2.188E3,1.841E3,7.08E2,1.48E3,2.22E2,1.619E3,3.06E2,4.02E2,1.56E2,1.324E3,8.2E1,1.4E2,4.33E2,1.186E3,3.1E1,2.75E2,3.35E2,6.7E1,5.5E1,1.01E2,4.93E2,8.31E2,5.7E1,2.5E1,7.4E1,6.6E1,3.49E2,8.4E1,7.39E2,4.47E2,1.7E1,1.4E1,1.01E2,1.74E2,5.2E1,2.83E2,8E0,5.9E1,1E0,5.4E1,1E0,1E2,2.34E2,2.59E2,7.08E2,1.23E2,5.2E1,5E0,2.3E1,2E0,7.2E1,2E0,6.2E1,4E0,1.06E2,2.43E2,8.2E1,2E0,2.07E2,5.32E2,3.33E2,1.14E2],"tree_param":{"num_deleted":"0","num_feature":"43","num_nodes":"63","size_leaf_vector":"1"}},{"base_weights":[-1.8006508E-3,-2.8748894E-1,2.5430816E-1,-4.192275E-1,2.306377E-2,1.713934E-1,7.4374276E-1,-6.251275E-1,-2.1798E-1,-8.931537E-2,1.9157347E-1,1.031969E-2,2.2941269E-1,4.8325023E-1,9.65747E-1,-8.4916496E-1,-4.7124782E-1,-9.169269E-1,-1.9502093E-1,-2.2375843E-1,1.0029581E-1,1.0007305E-1,1.9858986E-2,-3.6747295E-1,1.4017734E-1,2.0848238E-1,5.5204034E-1,6.942187E-1,3.49813E-1,5.4401193E-2,1.1259558E0,-8.037697E-2,-5.198271E-2,-3.4959584E-2,8.140351E-3,-4.7429893E-3,-7.108396E-2,-1.0064536E-2,-1.9661175E-2,-2.088435E-2,-2.9853927E-3,-0E0,1.4875706E-2,8.248636E-3,-4.7944143E-4,-3.5000846E-2,-3.239768E-3,2.5536593E-3,2.650715E-2,1.5985504E-2,-3.2657415E-3,4.3665837E-2,1.5078484E-2,-0E0,5.1962193E-2,8.5087854E-4,3.0287065E-2,8.135459E-2,1.7763317E-2],"categories":[],"categories_nodes":[],"categories_segments":[],"categories_sizes":[],"default_left":[0,0,0,0,0,0,0,0,0,0,0,0,0,0,0,0,0,0,0,0,0,0,0,0,0,0,0,0,0,0,0,0,0,0,0,0,0,0,0,0,0,0,0,0,0,0,0,0,0,0,0,0,0,0,0,0,0,0,0],"id":7,"left_children":[1,3,5,7,9,11,13,15,17,19,21,23,25,27,29,31,33,35,37,39,41,43,-1,45,47,49,51,53,55,-1,57,-1,-1,-1,-1,-1,-1,-1,-1,-1,-1,-1,-1,-1,-1,-1,-1,-1,-1,-1,-1,-1,-1,-1,-1,-1,-1,-1,-1],"loss_changes":[2.91131E2,7.725755E1,8.417494E1,5.3915268E1,1.0750563E1,1.6649601E1,1.5246933E1,2.0496414E1,9.6455765E0,8.725847E0,1.6353979E0,2.3648544E1,8.116661E0,2.7805138E0,1.0366974E0,4.5380554E0,7.5036163E0,8.882637E-1,2.5251732E0,2.5060759E0,1.6424681E0,3.110597E-1,0E0,4.9250584E0,8.711457E0,6.8237076E0,1.0325336E0,2.1987514E0,2.4937563E0,0E0,1.1023331E0,0E0,0E0,0E0,0E0,0E0,0E0,0E0,0E0,0E0,0E0,0E0,0E0,0E0,0E0,0E0,0E0,0E0,0E0,0E0,0E0,0E0,0E0,0E0,0E0,0E0,0E0,0E0,0E0],"parents":[2147483647,0,0,1,1,2,2,3,3,4,4,5,5,6,6,7,7,8,8,9,9,10,10,11,11,12,12,13,13,14,14,15,15,16,16,17,17,18,18,19,19,20,20,21,21,23,23,24,24,25,25,26,26,27,27,28,28,30,30],"right_children":[2,4,6,8,10,12,14,16,18,20,22,24,26,28,30,32,34,36,38,40,42,44,-1,46,48,50,52,54,56,-1,58,-1,-1,-1,-1,-1,-1,-1,-1,-1,-1,-1,-1,-1,-1,-1,-1,-1,-1,-1,-1,-1,-1,-1,-1,-1,-1,-1,-1],"split_conditions":[-1.892563E-1,-5.779264E-2,1.6330003E0,7.1424775E-2,9.056923E-1,-5.8158123E-1,1.502055E0,-7.434477E-1,-1.3431326E0,1.5776956E0,1.3704653E0,3.8059026E-1,7.525167E-1,3.0273095E-1,2.713204E0,-4.4175476E-1,6.3312516E0,5.803512E-1,-6.9760066E-1,6.547149E-1,1.2253657E-1,1.3518744E0,1.9858986E-2,-8.0932003E-1,4.209293E0,3.1416485E0,5.9661824E-1,-2.0920935E0,5.679704E-1,5.4401193E-2,2.156467E0,-8.037697E-2,-5.198271E-2,-3.4959584E-2,8.140351E-3,-4.7429893E-3,-7.108396E-2,-1.0064536E-2,-1.9661175E-2,-2.088435E-2,-2.9853927E-3,-0E0,1.4875706E-2,8.248636E-3,-4.7944143E-4,-3.5000846E-2,-3.239768E-3,2.5536593E-3,2.650715E-2,1.5985504E-2,-3.2657415E-3,4.3665837E-2,1.5078484E-2,-0E0,5.1962193E-2,8.5087854E-4,3.0287065E-2,8.135459E-2,1.7763317E-2],"split_indices":[6,7,6,4,4,4,7,6,5,3,4,6,7,14,6,3,41,4,7,4,7,4,0,4,40,39,4,4,3,0,24,0,0,0,0,0,0,0,0,0,0,0,0,0,0,0,0,0,0,0,0,0,0,0,0,0,0,0,0],"split_type":[0,0,0,0,0,0,0,0,0,0,0,0,0,0,0,0,0,0,0,0,0,0,0,0,0,0,0,0,0,0,0,0,0,0,0,0,0,0,0,0,0,0,0,0,0,0,0,0,0,0,0,0,0,0,0,0,0,0,0],"sum_hessian":[3.973E3,1.879E3,2.094E3,1.32E3,5.59E2,1.795E3,2.99E2,6.48E2,6.72E2,3.34E2,2.25E2,4.79E2,1.316E3,1.43E2,1.56E2,2.57E2,3.91E2,1.7E1,6.55E2,1.97E2,1.37E2,1.2E2,1.05E2,1.2E2,3.59E2,1.242E3,7.4E1,4.9E1,9.4E1,8.2E1,7.4E1,5.6E1,2.01E2,3.73E2,1.8E1,3E0,1.4E1,4.24E2,2.31E2,1.35E2,6.2E1,7.3E1,6.4E1,1.07E2,1.3E1,8.2E1,3.8E1,2.55E2,1.04E2,1.15E3,9.2E1,5.7E1,1.7E1,3E0,4.6E1,2.1E1,7.3E1,6.9E1,5E0],"tree_param":{"num_deleted":"0","num_feature":"43","num_nodes":"59","size_leaf_vector":"1"}},{"base_weights":[-3.3137074E-3,-3.2512262E-1,2.64366E-1,-5.4069906E-1,-6.421978E-2,1.4433412E-1,6.4814436E-1,-8.427637E-1,-3.8830057E-1,-1.2655237E-1,3.2727036E-1,-7.41837E-2,2.3371647E-1,5.430218E-1,1.0761741E0,-1.0011137E0,-7.07638E-1,-4.5895603E-1,-1.2718332E-1,-3.150242E-1,-2.4736712E-2,1.3026582E-1,5.693811E-1,-1.15458876E-1,1.6288877E-2,1.2574042E-1,3.329918E-1,4.147195E-1,6.204752E-1,7.55804E-2,-0E0,-7.112113E-2,-6.158658E-3,-5.6806903E-2,-3.7715092E-2,-5.5339515E-2,-3.0301489E-2,-1.9316565E-2,-3.390195E-3,-4.447675E-2,-1.7252818E-2,-4.942833E-3,2.92086E-2,-5.248369E-3,1.8762903E-2,4.2033125E-2,-0E0,-1.348276E-2,-6.2465516E-4,3.921369E-3,1.5297036E-2,1.856098E-2,3.1874437E-2,1.2722135E-2,3.1886585E-2,4.4542152E-2,1.4313313E-2],"categories":[],"categories_nodes":[],"categories_segments":[],"categories_sizes":[],"default_left":[0,0,0,0,0,0,0,0,0,0,0,0,0,0,0,0,0,0,0,0,0,0,0,0,0,0,0,0,0,0,0,0,0,0,0,0,0,0,0,0,0,0,0,0,0,0,0,0,0,0,0,0,0,0,0,0,0],"id":8,"left_children":[1,3,5,7,9,11,13,15,17,19,21,23,25,27,29,31,33,35,37,39,41,43,45,47,-1,49,51,53,55,-1,-1,-1,-1,-1,-1,-1,-1,-1,-1,-1,-1,-1,-1,-1,-1,-1,-1,-1,-1,-1,-1,-1,-1,-1,-1,-1,-1],"loss_changes":[3.4716196E2,1.02509796E2,1.0054445E2,4.4393982E1,2.0320284E1,3.2956394E1,2.0832886E1,4.0444183E0,1.1873558E1,1.36237955E1,4.794879E0,6.2080765E0,1.2410637E1,2.870552E0,7.302704E-1,1.6918335E0,1.340889E0,2.4895325E0,1.5186026E0,4.4758205E0,9.601376E0,2.1163106E0,8.604984E-1,3.481206E0,0E0,3.5776224E0,4.334961E0,1.0912666E0,1.1397705E0,0E0,0E0,0E0,0E0,0E0,0E0,0E0,0E0,0E0,0E0,0E0,0E0,0E0,0E0,0E0,0E0,0E0,0E0,0E0,0E0,0E0,0E0,0E0,0E0,0E0,0E0,0E0,0E0],"parents":[2147483647,0,0,1,1,2,2,3,3,4,4,5,5,6,6,7,7,8,8,9,9,10,10,11,11,12,12,13,13,14,14,15,15,16,16,17,17,18,18,19,19,20,20,21,21,22,22,23,23,25,25,26,26,27,27,28,28],"right_children":[2,4,6,8,10,12,14,16,18,20,22,24,26,28,30,32,34,36,38,40,42,44,46,48,-1,50,52,54,56,-1,-1,-1,-1,-1,-1,-1,-1,-1,-1,-1,-1,-1,-1,-1,-1,-1,-1,-1,-1,-1,-1,-1,-1,-1,-1,-1,-1],"split_conditions":[1.4329691E-1,-5.779264E-2,3.9843708E-1,-1.0802033E0,1.6330003E0,-5.5871725E-1,2.5253425E0,-1.8143035E0,-2.4561475E-1,-5.908032E-1,1.502055E0,-5.779264E-2,8.7739706E-1,6.32697E-1,2.156467E0,5.679704E-1,-6.1977226E-1,-1.0315704E0,-5.908032E-1,-1.8143035E0,6.116365E-2,-5.908032E-1,5.6749873E0,8.7739706E-1,1.6288877E-2,2.1270117E-1,1.6761887E-1,-3.6641344E-1,6.3312516E0,7.55804E-2,-0E0,-7.112113E-2,-6.158658E-3,-5.6806903E-2,-3.7715092E-2,-5.5339515E-2,-3.0301489E-2,-1.9316565E-2,-3.390195E-3,-4.447675E-2,-1.7252818E-2,-4.942833E-3,2.92086E-2,-5.248369E-3,1.8762903E-2,4.2033125E-2,-0E0,-1.348276E-2,-6.2465516E-4,3.921369E-3,1.5297036E-2,1.856098E-2,3.1874437E-2,1.2722135E-2,3.1886585E-2,4.4542152E-2,1.4313313E-2],"split_indices":[0,7,6,0,6,6,6,0,6,0,7,7,0,0,24,3,6,7,0,0,8,0,17,0,0,7,7,8,41,0,0,0,0,0,0,0,0,0,0,0,0,0,0,0,0,0,0,0,0,0,0,0,0,0,0,0,0],"split_type":[0,0,0,0,0,0,0,0,0,0,0,0,0,0,0,0,0,0,0,0,0,0,0,0,0,0,0,0,0,0,0,0,0,0,0,0,0,0,0,0,0,0,0,0,0,0,0,0,0,0,0,0,0,0,0,0,0],"sum_hessian":[4.024E3,1.828E3,2.196E3,9.98E2,8.3E2,1.677E3,5.19E2,3.29E2,6.69E2,7.19E2,1.11E2,4.85E2,1.192E3,4.23E2,9.6E1,1.41E2,1.88E2,5.23E2,1.46E2,2.48E2,4.71E2,6.5E1,4.6E1,4.31E2,5.4E1,5.77E2,6.15E2,1.69E2,2.54E2,9.5E1,1E0,1.37E2,4E0,1.05E2,8.3E1,2.7E1,4.96E2,4.5E1,1.01E2,3.7E1,2.11E2,4.3E2,4.1E1,2.5E1,4E1,4.3E1,3E0,2.44E2,1.87E2,3.38E2,2.39E2,4.1E2,2.05E2,3.1E1,1.38E2,2.4E2,1.4E1],"tree_param":{"num_deleted":"0","num_feature":"43","num_nodes":"57","size_leaf_vector":"1"}},{"base_weights":[3.14538E-3,-2.3779309E-1,2.2026993E-1,-3.5812965E-1,2.402385E-2,1.698645E-1,8.7095654E-1,-5.36073E-1,-1.8467005E-1,-7.856565E-2,1.6988854E-1,2.703389E-1,-1.7510628E-2,1.0190789E0,5.2040327E-1,-7.615332E-1,-4.1868743E-1,-8.830554E-1,-1.6386911E-1,-1.8134245E-1,9.941556E-2,8.371279E-2,2.5350022E-1,1.9568363E-1,4.041721E-1,-1.8938488E-1,5.7727285E-2,-0E0,1.0285383E0,-0E0,5.693614E-1,-6.349105E-2,-3.9018285E-2,-1.5144096E-2,-3.841747E-2,-2.0716123E-3,-6.597051E-2,-2.9890484E-3,-1.7588109E-2,-9.292737E-3,-4.5817006E-2,1.6215513E-2,-1.4877503E-3,-0E0,7.713113E-3,1.7909203E-2,-0E0,6.777662E-3,1.956974E-2,4.10235E-2,2.393109E-2,-3.418761E-2,-7.5423927E-4,2.6689542E-2,1.1019682E-3,7.223114E-2,-0E0,4.067561E-2,-0E0],"categories":[],"categories_nodes":[],"categories_segments":[],"categories_sizes":[],"default_left":[0,0,0,0,0,0,0,0,0,0,0,0,0,0,0,0,0,0,0,0,0,0,0,0,0,0,0,0,0,0,0,0,0,0,0,0,0,0,0,0,0,0,0,0,0,0,0,0,0,0,0,0,0,0,0,0,0,0,0],"id":9,"left_children":[1,3,5,7,9,11,13,15,17,19,21,23,25,27,29,31,33,35,37,39,41,43,45,47,49,51,53,-1,55,-1,57,-1,-1,-1,-1,-1,-1,-1,-1,-1,-1,-1,-1,-1,-1,-1,-1,-1,-1,-1,-1,-1,-1,-1,-1,-1,-1,-1,-1],"loss_changes":[2.1069354E2,6.0336075E1,6.847448E1,3.9679886E1,9.099646E0,3.7289593E1,5.3872986E0,1.53888855E1,8.669287E0,6.5555716E0,1.5498004E0,1.2258324E1,9.018835E0,9.1493225E-1,1.4697952E0,4.140831E0,1.0713806E1,3.0387115E-1,6.800537E0,4.450371E0,2.2181463E0,2.7592838E-1,1.6104746E-1,6.688324E0,3.9510727E0,1.1137613E1,6.271786E0,0E0,6.911087E-1,0E0,4.6562672E-1,0E0,0E0,0E0,0E0,0E0,0E0,0E0,0E0,0E0,0E0,0E0,0E0,0E0,0E0,0E0,0E0,0E0,0E0,0E0,0E0,0E0,0E0,0E0,0E0,0E0,0E0,0E0,0E0],"parents":[2147483647,0,0,1,1,2,2,3,3,4,4,5,5,6,6,7,7,8,8,9,9,10,10,11,11,12,12,13,13,14,14,15,15,16,16,17,17,18,18,19,19,20,20,21,21,22,22,23,23,24,24,25,25,26,26,28,28,30,30],"right_children":[2,4,6,8,10,12,14,16,18,20,22,24,26,28,30,32,34,36,38,40,42,44,46,48,50,52,54,-1,56,-1,58,-1,-1,-1,-1,-1,-1,-1,-1,-1,-1,-1,-1,-1,-1,-1,-1,-1,-1,-1,-1,-1,-1,-1,-1,-1,-1,-1,-1],"split_conditions":[-1.9957095E-1,-5.779264E-2,2.5253425E0,7.1424775E-2,9.056923E-1,6.2621886E-1,-4.126775E-2,-8.0606824E-1,-1.3431326E0,1.1093062E0,1.3704653E0,3.9843708E-1,9.069489E-1,4.3434536E-1,4.3434536E-1,-2.0976287E-1,6.2621886E-1,5.803512E-1,-6.0246164E-1,1.184122E-1,4.0768737E-1,-4.8697546E-1,1.4178364E0,2.4106692E-1,-8.714606E-1,-8.0932003E-1,-3.218647E-1,-0E0,5.6749873E0,-0E0,3.284633E0,-6.349105E-2,-3.9018285E-2,-1.5144096E-2,-3.841747E-2,-2.0716123E-3,-6.597051E-2,-2.9890484E-3,-1.7588109E-2,-9.292737E-3,-4.5817006E-2,1.6215513E-2,-1.4877503E-3,-0E0,7.713113E-3,1.7909203E-2,-0E0,6.777662E-3,1.956974E-2,4.10235E-2,2.393109E-2,-3.418761E-2,-7.5423927E-4,2.6689542E-2,1.1019682E-3,7.223114E-2,-0E0,4.067561E-2,-0E0],"split_indices":[6,7,6,4,4,2,1,6,5,5,4,6,9,7,7,4,2,4,1,5,1,5,1,4,1,4,1,0,17,0,2,0,0,0,0,0,0,0,0,0,0,0,0,0,0,0,0,0,0,0,0,0,0,0,0,0,0,0,0],"split_type":[0,0,0,0,0,0,0,0,0,0,0,0,0,0,0,0,0,0,0,0,0,0,0,0,0,0,0,0,0,0,0,0,0,0,0,0,0,0,0,0,0,0,0,0,0,0,0,0,0,0,0,0,0,0,0,0,0,0,0],"sum_hessian":[4.022E3,1.905E3,2.117E3,1.306E3,5.99E2,1.969E3,1.48E2,6.4E2,6.66E2,3.5E2,2.49E2,1.283E3,6.86E2,9.9E1,4.9E1,2.12E2,4.28E2,1.5E1,6.51E2,2.24E2,1.26E2,1.29E2,1.2E2,8.31E2,4.52E2,2.1E2,4.76E2,1E0,9.8E1,4E0,4.5E1,1.14E2,9.8E1,1.75E2,2.53E2,2E0,1.3E1,2.8E2,3.71E2,2.08E2,1.6E1,6.1E1,6.5E1,3.4E1,9.5E1,1.19E2,1E0,3.92E2,4.39E2,1.03E2,3.49E2,7.5E1,1.35E2,5E1,4.26E2,9.7E1,1E0,4.4E1,1E0],"tree_param":{"num_deleted":"0","num_feature":"43","num_nodes":"59","size_leaf_vector":"1"}},{"base_weights":[6.357607E-4,-3.2249096E-1,9.043737E-2,-5.754415E-1,-1.5812962E-1,2.1566464E-1,-1.0948256E-1,-8.467742E-1,-4.8887646E-1,-8.1627166E-1,-1.3080485E-1,6.191684E-1,1.609441E-1,-5.8049954E-2,-4.9471742E-1,-8.8370115E-1,-1.2411389E-1,-5.0804853E-1,1.1502092E-2,-4.171344E-3,-6.302353E-2,-1.3391098E-2,-2.0288439E-1,3.6201265E-1,8.828208E-1,1.973906E-1,-1.05132945E-1,-1.2626578E-1,1.816884E-1,-5.8433455E-1,-1.1669178E-1,-1.433703E-2,-6.3840374E-2,-1.4299304E-2,-0E0,-2.5244946E-2,-4.1180167E-2,-7.976488E-3,3.7828924E-3,-9.223359E-3,-2.0086318E-2,-7.220088E-3,2.743708E-2,6.266868E-2,-6.3619683E-3,9.730631E-3,2.0516943E-2,1.0731299E-2,-1.4725436E-2,-3.9190356E-2,-5.298116E-3,2.5951302E-2,4.1600387E-3,-4.3825824E-2,-9.030494E-3,-0E0,-9.085835E-3],"categories":[],"categories_nodes":[],"categories_segments":[],"categories_sizes":[],"default_left":[0,0,0,0,0,0,0,0,0,0,0,0,0,0,0,0,0,0,0,0,0,0,0,0,0,0,0,0,0,0,0,0,0,0,0,0,0,0,0,0,0,0,0,0,0,0,0,0,0,0,0,0,0,0,0,0,0],"id":10,"left_children":[1,3,5,7,9,11,13,15,17,19,21,23,25,27,29,31,33,35,-1,-1,-1,37,39,41,43,45,47,49,51,53,55,-1,-1,-1,-1,-1,-1,-1,-1,-1,-1,-1,-1,-1,-1,-1,-1,-1,-1,-1,-1,-1,-1,-1,-1,-1,-1],"loss_changes":[1.1638472E2,3.5543434E1,7.8839386E1,6.0156937E0,8.722109E0,4.198654E1,2.3574509E1,1.1272888E0,3.7931175E0,5.9058094E-1,4.235387E0,1.3850151E1,1.669653E1,1.7577236E1,4.152439E0,3.8177872E-1,1.256987E-1,1.9699478E0,0E0,0E0,0E0,1.4430507E0,1.5449057E0,2.1024628E0,2.5338593E0,8.066269E0,5.79844E0,1.7867722E1,5.1889324E0,1.5894547E0,7.423118E-2,0E0,0E0,0E0,0E0,0E0,0E0,0E0,0E0,0E0,0E0,0E0,0E0,0E0,0E0,0E0,0E0,0E0,0E0,0E0,0E0,0E0,0E0,0E0,0E0,0E0,0E0],"parents":[2147483647,0,0,1,1,2,2,3,3,4,4,5,5,6,6,7,7,8,8,9,9,10,10,11,11,12,12,13,13,14,14,15,15,16,16,17,17,21,21,22,22,23,23,24,24,25,25,26,26,27,27,28,28,29,29,30,30],"right_children":[2,4,6,8,10,12,14,16,18,20,22,24,26,28,30,32,34,36,-1,-1,-1,38,40,42,44,46,48,50,52,54,56,-1,-1,-1,-1,-1,-1,-1,-1,-1,-1,-1,-1,-1,-1,-1,-1,-1,-1,-1,-1,-1,-1,-1,-1,-1,-1],"split_conditions":[-5.119736E-1,7.1424775E-2,6.2621886E-1,-7.442518E-1,-1.3431326E0,3.0273095E-1,3.1416485E0,-5.401698E-1,6.3312516E0,5.803512E-1,-7.334069E-1,7.379937E-1,3.1416485E0,1.415436E0,1.318464E0,-1.2555021E0,-8.767121E-1,6.2621886E-1,1.1502092E-2,-4.171344E-3,-6.302353E-2,-1.069855E0,6.2621886E-1,-1.3252181E0,2.156467E0,1.14384174E-1,-7.068063E-1,-1.0463543E0,3.8898093E-1,6.116365E-2,-2.2833239E-1,-1.433703E-2,-6.3840374E-2,-1.4299304E-2,-0E0,-2.5244946E-2,-4.1180167E-2,-7.976488E-3,3.7828924E-3,-9.223359E-3,-2.0086318E-2,-7.220088E-3,2.743708E-2,6.266868E-2,-6.3619683E-3,9.730631E-3,2.0516943E-2,1.0731299E-2,-1.4725436E-2,-3.9190356E-2,-5.298116E-3,2.5951302E-2,4.1600387E-3,-4.3825824E-2,-9.030494E-3,-0E0,-9.085835E-3],"split_indices":[5,4,2,4,5,14,39,5,41,4,1,5,39,5,5,4,4,2,0,0,0,5,2,4,24,5,1,4,1,8,1,0,0,0,0,0,0,0,0,0,0,0,0,0,0,0,0,0,0,0,0,0,0,0,0,0,0],"split_type":[0,0,0,0,0,0,0,0,0,0,0,0,0,0,0,0,0,0,0,0,0,0,0,0,0,0,0,0,0,0,0,0,0,0,0,0,0,0,0,0,0,0,0,0,0,0,0,0,0,0,0,0,0,0,0,0,0],"sum_hessian":[4.01E3,8.69E2,3.141E3,3.38E2,5.31E2,1.933E3,1.208E3,7.4E1,2.64E2,1.7E1,5.14E2,2.26E2,1.707E3,1.07E3,1.38E2,6.9E1,5E0,2.58E2,6E0,3E0,1.4E1,2E2,3.14E2,1.19E2,1.07E2,1.504E3,2.03E2,8.36E2,2.34E2,1.09E2,2.9E1,5E0,6.4E1,3E0,2E0,1.02E2,1.56E2,8.3E1,1.17E2,1.8E2,1.34E2,6E0,1.13E2,1.06E2,1E0,9.52E2,5.52E2,5.7E1,1.46E2,8.2E1,7.54E2,8.7E1,1.47E2,9.7E1,1.2E1,2E0,2.7E1],"tree_param":{"num_deleted":"0","num_feature":"43","num_nodes":"57","size_leaf_vector":"1"}},{"base_weights":[1.7623317E-3,-3.2619184E-1,1.9685614E-1,-6.669295E-1,-2.2316796E-1,1.1710665E-1,5.8859944E-1,-7.2747254E-1,-3.2233092E-1,-3.1909728E-1,2.8588906E-2,-5.8517095E-2,2.0291513E-1,4.9744913E-1,9.840991E-1,-9.521706E-1,-6.35665E-1,-3.9850488E-1,-3.359997E-2,-3.8150978E-1,-1.7147844E-1,-2.378823E-2,3.8043523E-1,-2.0364006E-1,6.940075E-3,1.1693455E-1,3.0874062E-1,3.5064936E-1,5.995931E-1,4.8507726E-1,7.636337E-2,-6.82553E-2,-2.7096795E-3,-4.5382943E-2,-0E0,-2.9179433E-2,-0E0,-1.1930541E-2,3.6436538E-3,-3.266224E-2,-2.0655746E-2,-0E0,-1.3579011E-2,-1.08673535E-2,4.778314E-3,-1.633139E-3,3.0600812E-2,-2.1382695E-2,-6.9551426E-3,-3.5798692E-3,8.2962215E-3,6.5263757E-3,3.227033E-2,1.6175102E-2,2.796985E-2,-0E0,2.4753315E-2,4.2077348E-2,-0E0,-0E0,3.5570253E-2],"categories":[],"categories_nodes":[],"categories_segments":[],"categories_sizes":[],"default_left":[0,0,0,0,0,0,0,0,0,0,0,0,0,0,0,0,0,0,0,0,0,0,0,0,0,0,0,0,0,0,0,0,0,0,0,0,0,0,0,0,0,0,0,0,0,0,0,0,0,0,0,0,0,0,0,0,0,0,0,0,0],"id":11,"left_children":[1,3,5,7,9,11,13,15,17,19,21,23,25,27,29,31,33,35,37,39,41,43,45,47,49,51,53,55,57,59,-1,-1,-1,-1,-1,-1,-1,-1,-1,-1,-1,-1,-1,-1,-1,-1,-1,-1,-1,-1,-1,-1,-1,-1,-1,-1,-1,-1,-1,-1,-1],"loss_changes":[2.5551082E2,5.1300903E1,7.766192E1,5.8479156E0,2.7947853E1,3.1570253E1,1.2913544E1,3.2493744E0,9.7236395E-1,7.160797E0,6.099541E0,6.628871E0,1.24217415E1,4.070389E0,1.7173843E0,1.1973724E0,2.2733917E0,5.5657625E-1,2.970006E-1,3.453392E0,1.0225964E0,3.4780586E0,1.3007817E0,1.9813089E0,3.14604E0,5.8391504E0,3.787796E0,1.3183975E-1,3.547821E-1,2.4533081E-1,0E0,0E0,0E0,0E0,0E0,0E0,0E0,0E0,0E0,0E0,0E0,0E0,0E0,0E0,0E0,0E0,0E0,0E0,0E0,0E0,0E0,0E0,0E0,0E0,0E0,0E0,0E0,0E0,0E0,0E0,0E0],"parents":[2147483647,0,0,1,1,2,2,3,3,4,4,5,5,6,6,7,7,8,8,9,9,10,10,11,11,12,12,13,13,14,14,15,15,16,16,17,17,18,18,19,19,20,20,21,21,22,22,23,23,24,24,25,25,26,26,27,27,28,28,29,29],"right_children":[2,4,6,8,10,12,14,16,18,20,22,24,26,28,30,32,34,36,38,40,42,44,46,48,50,52,54,56,58,60,-1,-1,-1,-1,-1,-1,-1,-1,-1,-1,-1,-1,-1,-1,-1,-1,-1,-1,-1,-1,-1,-1,-1,-1,-1,-1,-1,-1,-1,-1,-1],"split_conditions":[-1.0140313E-1,-1.3249034E0,9.3165064E-1,5.679704E-1,3.0857667E-1,-4.3441555E-1,2.713204E0,-2.3037035E0,4.209293E0,-5.779264E-2,1.8834822E0,-9.294306E-1,8.7739706E-1,6.32697E-1,6.32697E-1,2.1995455E1,2.0669603E0,1.1334183E0,-1.8143035E0,-5.908032E-1,-6.52648E-1,-5.908032E-1,-1.0802033E0,6.32697E-1,8.7739706E-1,4.209293E0,2.0522377E-2,1.0067953E0,3.597146E0,4.3434536E-1,7.636337E-2,-6.82553E-2,-2.7096795E-3,-4.5382943E-2,-0E0,-2.9179433E-2,-0E0,-1.1930541E-2,3.6436538E-3,-3.266224E-2,-2.0655746E-2,-0E0,-1.3579011E-2,-1.08673535E-2,4.778314E-3,-1.633139E-3,3.0600812E-2,-2.1382695E-2,-6.9551426E-3,-3.5798692E-3,8.2962215E-3,6.5263757E-3,3.227033E-2,1.6175102E-2,2.796985E-2,-0E0,2.4753315E-2,4.2077348E-2,-0E0,-0E0,3.5570253E-2],"split_indices":[0,0,6,3,6,6,6,0,40,7,6,6,0,0,0,33,6,11,0,0,6,0,0,0,0,40,6,6,3,7,0,0,0,0,0,0,0,0,0,0,0,0,0,0,0,0,0,0,0,0,0,0,0,0,0,0,0,0,0,0,0],"split_type":[0,0,0,0,0,0,0,0,0,0,0,0,0,0,0,0,0,0,0,0,0,0,0,0,0,0,0,0,0,0,0,0,0,0,0,0,0,0,0,0,0,0,0,0,0,0,0,0,0,0,0,0,0,0,0,0,0,0,0,0,0],"sum_hessian":[3.989E3,1.486E3,2.503E3,3.4E2,1.146E3,2.084E3,4.19E2,2.85E2,5.5E1,8.31E2,3.15E2,6.82E2,1.402E3,3.47E2,7.2E1,7.3E1,2.12E2,4.1E1,1.4E1,5.78E2,2.53E2,2.75E2,4E1,2.13E2,4.69E2,7.8E2,6.22E2,1.5E2,1.97E2,1.7E1,5.5E1,7E1,3E0,2.07E2,5E0,4E1,1E0,7E0,7E0,2.75E2,3.03E2,3.1E1,2.22E2,1.15E2,1.6E2,4E0,3.6E1,1.01E2,1.12E2,3.06E2,1.63E2,7.36E2,4.4E1,3.5E2,2.72E2,3E0,1.47E2,1.95E2,2E0,1E0,1.6E1],"tree_param":{"num_deleted":"0","num_feature":"43","num_nodes":"61","size_leaf_vector":"1"}},{"base_weights":[1.888267E-3,-1.589683E-1,1.9299443E-1,-2.5205815E-2,-3.5178325E-1,6.183046E-1,1.3452956E-1,-2.9710293E-1,3.1195343E-2,-5.6673124E-2,-3.1708834E-1,3.390645E-1,7.709697E-1,2.1666433E-1,7.1909144E-3,-5.2542543E-1,-1.7877083E-1,-8.943917E-2,1.21572524E-1,-3.6680263E-1,-1.603686E-1,-0E0,3.9601517E-1,7.9435295E-1,-0E0,2.4200037E-1,-3.1342853E-2,3.588794E-2,-3.0091456E-1,-0E0,-3.7075862E-2,-3.7670203E-2,-9.638848E-3,-1.2262814E-2,-0E0,2.9209557E-3,1.7180512E-2,-3.9384194E-2,-2.0774515E-2,-0E0,-1.3060433E-2,-1.6740052E-3,2.4145357E-3,2.9208507E-2,-3.3249806E-3,5.556086E-2,-0E0,1.4375585E-2,2.9021472E-2,-1.72481E-2,9.804365E-3,-8.9052366E-4,1.1395656E-2,-3.0222084E-2,-1.0192362E-2],"categories":[],"categories_nodes":[],"categories_segments":[],"categories_sizes":[],"default_left":[0,0,0,0,0,0,0,0,0,0,0,0,0,0,0,0,0,0,0,0,0,0,0,0,0,0,0,0,0,0,0,0,0,0,0,0,0,0,0,0,0,0,0,0,0,0,0,0,0,0,0,0,0,0,0],"id":12,"left_children":[1,3,5,7,9,11,13,15,17,-1,19,21,23,25,27,29,31,33,35,37,39,41,43,45,-1,47,49,51,53,-1,-1,-1,-1,-1,-1,-1,-1,-1,-1,-1,-1,-1,-1,-1,-1,-1,-1,-1,-1,-1,-1,-1,-1,-1,-1],"loss_changes":[1.22851135E2,5.5658226E1,4.475737E1,1.9891184E1,1.2774216E1,7.9114E0,1.6718168E1,5.3263416E0,1.1660158E1,0E0,5.9783173E0,1.6284084E0,2.5217438E0,6.2873573E0,5.509919E0,2.4608612E-1,1.6099763E0,3.5479455E0,5.900548E0,7.503044E0,1.0130606E0,1.4503287E-2,1.0261421E0,7.354736E-2,0E0,4.9056168E0,3.5460675E0,3.75173E0,5.5376863E-1,0E0,0E0,0E0,0E0,0E0,0E0,0E0,0E0,0E0,0E0,0E0,0E0,0E0,0E0,0E0,0E0,0E0,0E0,0E0,0E0,0E0,0E0,0E0,0E0,0E0,0E0],"parents":[2147483647,0,0,1,1,2,2,3,3,4,4,5,5,6,6,7,7,8,8,10,10,11,11,12,12,13,13,14,14,15,15,16,16,17,17,18,18,19,19,20,20,21,21,22,22,23,23,25,25,26,26,27,27,28,28],"right_children":[2,4,6,8,10,12,14,16,18,-1,20,22,24,26,28,30,32,34,36,38,40,42,44,46,-1,48,50,52,54,-1,-1,-1,-1,-1,-1,-1,-1,-1,-1,-1,-1,-1,-1,-1,-1,-1,-1,-1,-1,-1,-1,-1,-1,-1,-1],"split_conditions":[1.2253657E-1,6.2621886E-1,3.0273095E-1,-8.906079E-1,-1.0315704E0,1.1143472E0,6.2621886E-1,7.1424775E-2,9.994424E-1,-5.6673124E-2,2.0853281E-1,-1.7923149E0,5.6749873E0,3.1416485E0,3.1416485E0,-1.2555021E0,-1.3431326E0,1.8529415E-1,-5.564029E-1,-7.70093E-1,3.2937378E-1,1.4283395E0,1.955426E0,1.4283395E0,-0E0,9.34018E-1,3.9303038E-1,1.415436E0,4.83195E-1,-0E0,-3.7075862E-2,-3.7670203E-2,-9.638848E-3,-1.2262814E-2,-0E0,2.9209557E-3,1.7180512E-2,-3.9384194E-2,-2.0774515E-2,-0E0,-1.3060433E-2,-1.6740052E-3,2.4145357E-3,2.9208507E-2,-3.3249806E-3,5.556086E-2,-0E0,1.4375585E-2,2.9021472E-2,-1.72481E-2,9.804365E-3,-8.9052366E-4,1.1395656E-2,-3.0222084E-2,-1.0192362E-2],"split_indices":[7,2,14,5,7,7,2,4,8,0,4,4,17,39,39,4,5,4,7,7,4,8,2,8,0,7,7,5,7,0,0,0,0,0,0,0,0,0,0,0,0,0,0,0,0,0,0,0,0,0,0,0,0,0,0],"split_type":[0,0,0,0,0,0,0,0,0,0,0,0,0,0,0,0,0,0,0,0,0,0,0,0,0,0,0,0,0,0,0,0,0,0,0,0,0,0,0,0,0,0,0,0,0,0,0,0,0,0,0,0,0,0,0],"sum_hessian":[3.99E3,2.165E3,1.825E3,1.282E3,8.83E2,2.16E2,1.609E3,2.2E2,1.062E3,5.6E1,8.27E2,8.1E1,1.35E2,9.74E2,6.35E2,7E1,1.5E2,4.52E2,6.1E2,6.22E2,2.05E2,1.2E1,6.9E1,1.31E2,4E0,8.86E2,8.8E1,5.85E2,5E1,1E0,6.9E1,1E1,1.4E2,2.29E2,2.23E2,3.78E2,2.32E2,1.52E2,4.7E2,2.7E1,1.78E2,8E0,4E0,6.7E1,2E0,1.3E2,1E0,7.44E2,1.42E2,4E1,4.8E1,4.22E2,1.63E2,2.2E1,2.8E1],"tree_param":{"num_deleted":"0","num_feature":"43","num_nodes":"55","size_leaf_vector":"1"}},{"base_weights":[-0E0,-1.9274248E-1,1.7278631E-1,-2.8974408E-1,1.7550724E-2,1.1048381E-1,5.331496E-1,-4.2381415E-1,-1.5796614E-1,-7.137195E-2,1.3508439E-1,2.1006432E-1,2.2041998E-3,8.275491E-1,4.0300107E-1,-5.900359E-1,-3.287738E-1,-7.4575436E-1,-1.3634178E-1,-1.7367329E-1,7.413644E-2,7.553752E-2,2.0303631E-1,1.20667666E-1,2.878591E-1,-1.5499748E-1,4.897312E-2,4.569328E-2,7.2661206E-2,2.6714835E-1,5.552856E-1,-4.838714E-2,-2.9254792E-2,9.087304E-3,-2.477376E-2,-0E0,-5.5540364E-2,-3.1485946E-3,-1.4315558E-2,-1.5978672E-2,-3.0796542E-3,1.0190357E-2,-1.146686E-2,6.331307E-3,-2.7656418E-3,1.5200498E-2,1.7127469E-4,1.1467035E-2,-1.3413011E-3,2.8023237E-2,1.6706748E-2,-2.7731167E-2,-2.9051693E-3,1.437822E-2,-2.6364247E-3,2.63983E-2,9.84317E-3,4.0198073E-2,-0E0],"categories":[],"categories_nodes":[],"categories_segments":[],"categories_sizes":[],"default_left":[0,0,0,0,0,0,0,0,0,0,0,0,0,0,0,0,0,0,0,0,0,0,0,0,0,0,0,0,0,0,0,0,0,0,0,0,0,0,0,0,0,0,0,0,0,0,0,0,0,0,0,0,0,0,0,0,0,0,0],"id":13,"left_children":[1,3,5,7,9,11,13,15,17,19,21,23,25,27,29,31,33,35,37,39,41,43,45,47,49,51,53,-1,-1,55,57,-1,-1,-1,-1,-1,-1,-1,-1,-1,-1,-1,-1,-1,-1,-1,-1,-1,-1,-1,-1,-1,-1,-1,-1,-1,-1,-1,-1],"loss_changes":[1.33592E2,3.8832115E1,4.6968544E1,2.2403938E1,6.3249626E0,1.9384861E1,1.0175186E1,8.998116E0,7.587946E0,5.1559887E0,8.469863E-1,6.189659E0,6.374752E0,3.7881088E-1,3.6682205E0,2.5288696E0,5.406395E0,4.6957302E-1,3.8750277E0,1.2688346E0,2.4673638E0,3.0481815E-1,2.178626E-1,2.8398552E0,2.0656166E0,5.1358666E0,9.391237E0,0E0,0E0,1.2891264E0,1.1367779E0,0E0,0E0,0E0,0E0,0E0,0E0,0E0,0E0,0E0,0E0,0E0,0E0,0E0,0E0,0E0,0E0,0E0,0E0,0E0,0E0,0E0,0E0,0E0,0E0,0E0,0E0,0E0,0E0],"parents":[2147483647,0,0,1,1,2,2,3,3,4,4,5,5,6,6,7,7,8,8,9,9,10,10,11,11,12,12,13,13,14,14,15,15,16,16,17,17,18,18,19,19,20,20,21,21,22,22,23,23,24,24,25,25,26,26,29,29,30,30],"right_children":[2,4,6,8,10,12,14,16,18,20,22,24,26,28,30,32,34,36,38,40,42,44,46,48,50,52,54,-1,-1,56,58,-1,-1,-1,-1,-1,-1,-1,-1,-1,-1,-1,-1,-1,-1,-1,-1,-1,-1,-1,-1,-1,-1,-1,-1,-1,-1,-1,-1],"split_conditions":[-1.9957095E-1,-5.779264E-2,1.6330003E0,7.1424775E-2,9.056923E-1,-7.868067E-2,-6.398746E-1,-8.0606824E-1,-1.3431326E0,1.5776956E0,1.3797607E0,-2.8320417E-1,2.1270117E-1,3.010651E0,1.502055E0,-2.0976287E-1,-9.8695433E-1,5.803512E-1,-6.0246164E-1,6.547149E-1,9.501748E-1,-4.3285003E-1,6.704758E-1,-5.837552E-1,-8.269392E-1,-8.232632E-1,2.5778347E-1,4.569328E-2,7.2661206E-2,1.2709042E-1,5.6749873E0,-4.838714E-2,-2.9254792E-2,9.087304E-3,-2.477376E-2,-0E0,-5.5540364E-2,-3.1485946E-3,-1.4315558E-2,-1.5978672E-2,-3.0796542E-3,1.0190357E-2,-1.146686E-2,6.331307E-3,-2.7656418E-3,1.5200498E-2,1.7127469E-4,1.1467035E-2,-1.3413011E-3,2.8023237E-2,1.6706748E-2,-2.7731167E-2,-2.9051693E-3,1.437822E-2,-2.6364247E-3,2.63983E-2,9.84317E-3,4.0198073E-2,-0E0],"split_indices":[6,7,6,4,4,1,1,6,5,3,4,7,7,6,7,4,1,4,1,4,1,6,1,1,1,4,7,0,0,1,17,0,0,0,0,0,0,0,0,0,0,0,0,0,0,0,0,0,0,0,0,0,0,0,0,0,0,0,0],"split_type":[0,0,0,0,0,0,0,0,0,0,0,0,0,0,0,0,0,0,0,0,0,0,0,0,0,0,0,0,0,0,0,0,0,0,0,0,0,0,0,0,0,0,0,0,0,0,0,0,0,0,0,0,0,0,0,0,0,0,0],"sum_hessian":[4.006E3,1.892E3,2.114E3,1.296E3,5.96E2,1.807E3,3.07E2,6.37E2,6.59E2,3.37E2,2.59E2,9.37E2,8.7E2,8.8E1,2.19E2,2.24E2,4.13E2,1.9E1,6.4E2,2E2,1.37E2,1.46E2,1.13E2,4.43E2,4.94E2,1.95E2,6.75E2,5.7E1,3.1E1,1.22E2,9.7E1,1.31E2,9.3E1,2.1E1,3.92E2,2E0,1.7E1,2.82E2,3.58E2,1.35E2,6.5E1,1.08E2,2.9E1,1.34E2,1.2E1,1.02E2,1.1E1,3.4E2,1.03E2,1.36E2,3.58E2,5.8E1,1.37E2,2.41E2,4.34E2,5.9E1,6.3E1,9.3E1,4E0],"tree_param":{"num_deleted":"0","num_feature":"43","num_nodes":"59","size_leaf_vector":"1"}},{"base_weights":[-5.315601E-4,-2.4178122E-1,2.0227644E-1,-4.863697E-1,-1.2171688E-1,1.4491515E-1,5.65726E-1,-5.619808E-1,-2.2079453E-1,-1.9040231E-1,1.23018876E-1,-3.747787E-2,1.9916455E-1,7.7553385E-1,4.2751265E-1,-7.5683767E-1,-4.7125128E-1,-3.4105433E-3,-2.4390632E-1,-1.5803865E-1,-4.2416215E-1,5.5993948E-2,3.1609136E-1,-8.7537564E-2,1.0300085E-1,1.2818086E-1,2.741334E-1,5.2024096E-1,9.7769964E-1,3.5923082E-1,3.9065134E-2,-5.3350154E-2,-0E0,-2.9866498E-2,-4.8169527E-2,-9.598216E-3,5.2964576E-3,-0E0,-1.753527E-2,-1.9636557E-2,-7.4774036E-3,-4.8956268E-2,-2.5923708E-2,1.2639762E-2,-3.9116554E-3,3.0206867E-2,1.3661676E-2,-1.0358042E-2,-2.6714678E-3,2.6002356E-3,1.7104408E-2,4.7044107E-3,1.4490152E-2,1.2623033E-2,2.3830224E-2,3.7793286E-2,-0E0,6.970293E-2,9.1355835E-4,2.7192337E-2,9.988314E-3],"categories":[],"categories_nodes":[],"categories_segments":[],"categories_sizes":[],"default_left":[0,0,0,0,0,0,0,0,0,0,0,0,0,0,0,0,0,0,0,0,0,0,0,0,0,0,0,0,0,0,0,0,0,0,0,0,0,0,0,0,0,0,0,0,0,0,0,0,0,0,0,0,0,0,0,0,0,0,0,0,0],"id":14,"left_children":[1,3,5,7,9,11,13,15,17,19,21,23,25,27,29,31,33,35,37,39,41,43,45,47,49,51,53,55,57,59,-1,-1,-1,-1,-1,-1,-1,-1,-1,-1,-1,-1,-1,-1,-1,-1,-1,-1,-1,-1,-1,-1,-1,-1,-1,-1,-1,-1,-1,-1,-1],"loss_changes":[1.9655066E2,5.337496E1,4.4801773E1,1.1257156E1,2.0898874E1,1.8808926E1,6.8754272E0,6.456665E0,5.504012E-1,6.785675E0,3.2290564E0,3.0603087E0,7.4193535E0,3.4142456E0,5.59906E-1,7.800827E-1,1.5327682E0,2.6861423E-1,3.5492706E-1,5.0643196E0,2.51606E-1,3.0159097E0,3.1864595E-1,8.447399E-1,8.4961414E-1,3.4675264E0,3.9460297E0,7.619848E-1,6.3288116E-1,4.1725922E-1,0E0,0E0,0E0,0E0,0E0,0E0,0E0,0E0,0E0,0E0,0E0,0E0,0E0,0E0,0E0,0E0,0E0,0E0,0E0,0E0,0E0,0E0,0E0,0E0,0E0,0E0,0E0,0E0,0E0,0E0,0E0],"parents":[2147483647,0,0,1,1,2,2,3,3,4,4,5,5,6,6,7,7,8,8,9,9,10,10,11,11,12,12,13,13,14,14,15,15,16,16,17,17,18,18,19,19,20,20,21,21,22,22,23,23,24,24,25,25,26,26,27,27,28,28,29,29],"right_children":[2,4,6,8,10,12,14,16,18,20,22,24,26,28,30,32,34,36,38,40,42,44,46,48,50,52,54,56,58,60,-1,-1,-1,-1,-1,-1,-1,-1,-1,-1,-1,-1,-1,-1,-1,-1,-1,-1,-1,-1,-1,-1,-1,-1,-1,-1,-1,-1,-1,-1,-1],"split_conditions":[1.4329691E-1,-8.355033E-1,7.525167E-1,6.8636364E-1,1.0388157E0,-5.987803E-1,3.0273095E-1,-1.8143035E0,3.0273095E-1,3.1416485E0,1.3848411E0,1.1220971E0,8.7739706E-1,8.7739706E-1,1.502055E0,5.679704E-1,3.1416485E0,1.0241827E0,-6.0246164E-1,-4.9183348E-1,-4.4175476E-1,3.899648E-1,3.0273095E-1,-1.069855E0,-7.2501075E-1,2.1270117E-1,-4.835855E-1,5.6749873E0,3.1416485E0,3.1416485E0,3.9065134E-2,-5.3350154E-2,-0E0,-2.9866498E-2,-4.8169527E-2,-9.598216E-3,5.2964576E-3,-0E0,-1.753527E-2,-1.9636557E-2,-7.4774036E-3,-4.8956268E-2,-2.5923708E-2,1.2639762E-2,-3.9116554E-3,3.0206867E-2,1.3661676E-2,-1.0358042E-2,-2.6714678E-3,2.6002356E-3,1.7104408E-2,4.7044107E-3,1.4490152E-2,1.2623033E-2,2.3830224E-2,3.7793286E-2,-0E0,6.970293E-2,9.1355835E-4,2.7192337E-2,9.988314E-3],"split_indices":[0,0,7,5,5,7,14,0,14,39,7,0,0,0,7,3,39,7,1,5,3,7,14,5,7,7,5,17,39,39,0,0,0,0,0,0,0,0,0,0,0,0,0,0,0,0,0,0,0,0,0,0,0,0,0,0,0,0,0,0,0],"split_type":[0,0,0,0,0,0,0,0,0,0,0,0,0,0,0,0,0,0,0,0,0,0,0,0,0,0,0,0,0,0,0,0,0,0,0,0,0,0,0,0,0,0,0,0,0,0,0,0,0,0,0,0,0,0,0,0,0,0,0,0,0],"sum_hessian":[4.011E3,1.833E3,2.178E3,5.99E2,1.234E3,1.886E3,2.92E2,4.62E2,1.37E2,9.66E2,2.68E2,4.3E2,1.456E3,1.09E2,1.83E2,1.38E2,3.24E2,1.6E1,1.21E2,8.55E2,1.11E2,2.04E2,6.4E1,3.21E2,1.09E2,7.56E2,7E2,5.4E1,5.5E1,1.31E2,5.2E1,1.36E2,2E0,2.81E2,4.3E1,8E0,8E0,2E0,1.19E2,2.41E2,6.14E2,1E1,1.01E2,9.8E1,1.06E2,2.6E1,3.8E1,1.35E2,1.86E2,8E1,2.9E1,4.37E2,3.19E2,3.04E2,3.96E2,5.2E1,2E0,5.3E1,2E0,1.1E2,2.1E1],"tree_param":{"num_deleted":"0","num_feature":"43","num_nodes":"61","size_leaf_vector":"1"}},{"base_weights":[-2.7755434E-3,-2.2408843E-1,1.843763E-1,-4.4099292E-1,-1.1779029E-1,1.0404506E-1,4.3582892E-1,-6.402842E-1,-3.504061E-1,-1.9210367E-1,8.5815795E-2,-2.5603589E-2,1.5717101E-1,3.7960005E-1,7.88823E-1,-6.867559E-1,-3.3945373E-1,-4.1479194E-1,-1.7066674E-1,-1.5951203E-1,-3.7385514E-1,2.3322342E-1,5.972949E-3,-1.2454771E-1,3.0882651E-2,8.077451E-2,2.2926272E-1,3.2870024E-1,5.1068956E-1,3.1090468E-1,6.0234003E-2,-4.8491918E-2,-3.6064003E-4,-0E0,-3.145607E-2,-1.6433E-2,-3.143708E-2,-1.5371046E-2,7.0782943E-4,-9.295127E-3,-2.9199889E-2,-0E0,-2.620517E-2,1.7594405E-2,-5.9961556E-3,-1.0618266E-2,6.9484417E-3,-1.5514225E-2,-4.6773856E-3,-2.7526228E-4,1.0736846E-2,6.4895563E-3,-9.4871195E-3,1.7290588E-2,5.567959E-4,1.9841095E-2,3.6763035E-2,3.6074523E-2,-0E0,2.69131E-2,-0E0],"categories":[],"categories_nodes":[],"categories_segments":[],"categories_sizes":[],"default_left":[0,0,0,0,0,0,0,0,0,0,0,0,0,0,0,0,0,0,0,0,0,0,0,0,0,0,0,0,0,0,0,0,0,0,0,0,0,0,0,0,0,0,0,0,0,0,0,0,0,0,0,0,0,0,0,0,0,0,0,0,0],"id":15,"left_children":[1,3,5,7,9,11,13,15,17,19,21,23,25,27,29,31,33,35,37,39,41,43,45,47,49,51,53,55,57,59,-1,-1,-1,-1,-1,-1,-1,-1,-1,-1,-1,-1,-1,-1,-1,-1,-1,-1,-1,-1,-1,-1,-1,-1,-1,-1,-1,-1,-1,-1,-1],"loss_changes":[1.6639215E2,4.197998E1,4.347444E1,9.643066E0,1.8901478E1,1.1482456E1,8.835472E0,1.269455E0,4.33683E0,4.9140434E0,3.7568038E0,2.7496166E0,6.240885E0,2.074173E0,9.8363113E-1,5.545883E-1,9.90546E-1,1.2857475E0,1.208874E0,4.7976017E0,9.65004E-2,8.6742115E-1,3.2927437E0,7.8960204E-1,1.3974651E0,1.569705E0,2.357895E0,2.062809E0,3.5486984E-1,1.8458354E-1,0E0,0E0,0E0,0E0,0E0,0E0,0E0,0E0,0E0,0E0,0E0,0E0,0E0,0E0,0E0,0E0,0E0,0E0,0E0,0E0,0E0,0E0,0E0,0E0,0E0,0E0,0E0,0E0,0E0,0E0,0E0],"parents":[2147483647,0,0,1,1,2,2,3,3,4,4,5,5,6,6,7,7,8,8,9,9,10,10,11,11,12,12,13,13,14,14,15,15,16,16,17,17,18,18,19,19,20,20,21,21,22,22,23,23,24,24,25,25,26,26,27,27,28,28,29,29],"right_children":[2,4,6,8,10,12,14,16,18,20,22,24,26,28,30,32,34,36,38,40,42,44,46,48,50,52,54,56,58,60,-1,-1,-1,-1,-1,-1,-1,-1,-1,-1,-1,-1,-1,-1,-1,-1,-1,-1,-1,-1,-1,-1,-1,-1,-1,-1,-1,-1,-1,-1,-1],"split_conditions":[1.4329691E-1,-8.355033E-1,3.9843708E-1,-1.8143035E0,3.8059026E-1,-5.5871725E-1,2.713204E0,5.679704E-1,3.0857667E-1,3.1416485E0,-1.4181726E0,-9.469643E-1,8.7739706E-1,1.1220971E0,6.32697E-1,2.1995455E1,4.8251322E-1,-8.59976E-1,4.209293E0,5.6749873E0,-1.654576E0,3.1416485E0,8.50244E-1,6.32697E-1,-3.1025353E-1,3.1416485E0,3.1416485E0,4.209293E0,3.597146E0,4.216308E-2,6.0234003E-2,-4.8491918E-2,-3.6064003E-4,-0E0,-3.145607E-2,-1.6433E-2,-3.143708E-2,-1.5371046E-2,7.0782943E-4,-9.295127E-3,-2.9199889E-2,-0E0,-2.620517E-2,1.7594405E-2,-5.9961556E-3,-1.0618266E-2,6.9484417E-3,-1.5514225E-2,-4.6773856E-3,-2.7526228E-4,1.0736846E-2,6.4895563E-3,-9.4871195E-3,1.7290588E-2,5.567959E-4,1.9841095E-2,3.6763035E-2,3.6074523E-2,-0E0,2.69131E-2,-0E0],"split_indices":[0,0,6,0,6,6,6,3,6,39,4,6,0,0,0,33,1,8,40,17,6,39,6,0,7,39,39,40,3,1,0,0,0,0,0,0,0,0,0,0,0,0,0,0,0,0,0,0,0,0,0,0,0,0,0,0,0,0,0,0,0],"split_type":[0,0,0,0,0,0,0,0,0,0,0,0,0,0,0,0,0,0,0,0,0,0,0,0,0,0,0,0,0,0,0,0,0,0,0,0,0,0,0,0,0,0,0,0,0,0,0,0,0,0,0,0,0,0,0,0,0,0,0,0,0],"sum_hessian":[4.011E3,1.839E3,2.172E3,6E2,1.239E3,1.651E3,5.21E2,1.8E2,4.2E2,9.1E2,3.29E2,4.77E2,1.174E3,4.56E2,6.5E1,1.51E2,2.9E1,3.04E2,1.16E2,7.79E2,1.31E2,1.11E2,2.18E2,1.76E2,3.01E2,5.77E2,5.97E2,3.39E2,1.17E2,1.2E1,5.3E1,1.48E2,3E0,9E0,2E1,5.8E1,2.46E2,9.3E1,2.3E1,7.14E2,6.5E1,1E0,1.3E2,1.07E2,4E0,7.8E1,1.4E2,5.8E1,1.18E2,2.33E2,6.8E1,5.5E2,2.7E1,5.47E2,5E1,2.86E2,5.3E1,1.15E2,2E0,8E0,4E0],"tree_param":{"num_deleted":"0","num_feature":"43","num_nodes":"61","size_leaf_vector":"1"}},{"base_weights":[3.5173004E-4,-1.5681441E-1,1.41168E-1,-2.3755872E-1,2.4099378E-2,9.561471E-2,4.013661E-1,-1.2824327E-1,-3.5100555E-1,8.642363E-2,-5.852471E-2,1.8048559E-1,1.0920571E-3,6.549131E-1,3.0554268E-1,-3.8057184E-1,-9.826011E-2,-4.3557994E-2,-3.2018065E-1,1.1840993E-1,-1.1797426E-1,-4.456747E-2,-2.5885555E-1,8.570933E-2,2.4549666E-1,-1.4201033E-1,4.4259798E-2,5.430435E-2,3.0310223E-2,1.786685E-1,4.4459718E-1,-3.9166352E-4,-3.238366E-2,-4.494542E-3,-2.2721283E-2,-1.1666838E-2,-2.403307E-2,1.0016675E-2,3.5318782E-4,-1.5418709E-2,1.8087189E-3,-1.2425373E-3,-9.123833E-3,-0E0,-2.0134365E-2,8.455434E-3,-3.3441028E-3,2.4265805E-2,1.4130695E-2,8.501089E-3,-1.2451162E-2,1.2303391E-2,-2.4963643E-3,4.7222967E-3,1.73752E-2,3.221812E-2,-0E0],"categories":[],"categories_nodes":[],"categories_segments":[],"categories_sizes":[],"default_left":[0,0,0,0,0,0,0,0,0,0,0,0,0,0,0,0,0,0,0,0,0,0,0,0,0,0,0,0,0,0,0,0,0,0,0,0,0,0,0,0,0,0,0,0,0,0,0,0,0,0,0,0,0,0,0,0,0],"id":16,"left_children":[1,3,5,7,9,11,13,15,17,19,21,23,25,27,29,31,33,-1,35,37,39,41,43,45,47,49,51,-1,-1,53,55,-1,-1,-1,-1,-1,-1,-1,-1,-1,-1,-1,-1,-1,-1,-1,-1,-1,-1,-1,-1,-1,-1,-1,-1,-1,-1],"loss_changes":[8.910776E1,2.7912884E1,2.4786854E1,1.5912132E1,3.053322E0,1.4448559E1,6.4724693E0,4.731539E0,4.2839737E0,2.2620466E0,4.818328E-1,5.6102886E0,5.3012433E0,5.396347E-1,3.5390987E0,1.8852215E0,4.4078393E0,0E0,1.7445145E0,7.651305E-1,8.023124E-1,4.5719653E-1,1.2920243E-1,1.9500184E0,1.9194794E0,2.0166168E0,7.2062078E0,0E0,0E0,7.7861214E-1,6.870556E-1,0E0,0E0,0E0,0E0,0E0,0E0,0E0,0E0,0E0,0E0,0E0,0E0,0E0,0E0,0E0,0E0,0E0,0E0,0E0,0E0,0E0,0E0,0E0,0E0,0E0,0E0],"parents":[2147483647,0,0,1,1,2,2,3,3,4,4,5,5,6,6,7,7,8,8,9,9,10,10,11,11,12,12,13,13,14,14,15,15,16,16,18,18,19,19,20,20,21,21,22,22,23,23,24,24,25,25,26,26,29,29,30,30],"right_children":[2,4,6,8,10,12,14,16,18,20,22,24,26,28,30,32,34,-1,36,38,40,42,44,46,48,50,52,-1,-1,54,56,-1,-1,-1,-1,-1,-1,-1,-1,-1,-1,-1,-1,-1,-1,-1,-1,-1,-1,-1,-1,-1,-1,-1,-1,-1,-1],"split_conditions":[-1.892563E-1,-5.779264E-2,1.6330003E0,6.2621886E-1,6.2621886E-1,-7.868067E-2,-6.398746E-1,-9.6845514E-1,-1.3414735E0,-4.1869122E-1,4.3434536E-1,-4.1845107E-1,2.1270117E-1,3.0273095E-1,1.502055E0,-1.654576E0,5.760456E-1,-4.3557994E-2,-4.9860337E-1,6.704758E-1,2.9101117E0,9.501748E-1,-1.1636555E0,-5.4228294E-1,-8.614339E-1,-1.8299425E-1,2.5778347E-1,5.430435E-2,3.0310223E-2,1.3848411E0,1.955426E0,-3.9166352E-4,-3.238366E-2,-4.494542E-3,-2.2721283E-2,-1.1666838E-2,-2.403307E-2,1.0016675E-2,3.5318782E-4,-1.5418709E-2,1.8087189E-3,-1.2425373E-3,-9.123833E-3,-0E0,-2.0134365E-2,8.455434E-3,-3.3441028E-3,2.4265805E-2,1.4130695E-2,8.501089E-3,-1.2451162E-2,1.2303391E-2,-2.4963643E-3,4.7222967E-3,1.73752E-2,3.221812E-2,-0E0],"split_indices":[6,7,6,2,2,1,1,7,6,6,7,7,7,14,7,6,1,0,1,1,30,1,1,1,1,6,7,0,0,7,2,0,0,0,0,0,0,0,0,0,0,0,0,0,0,0,0,0,0,0,0,0,0,0,0,0,0],"split_type":[0,0,0,0,0,0,0,0,0,0,0,0,0,0,0,0,0,0,0,0,0,0,0,0,0,0,0,0,0,0,0,0,0,0,0,0,0,0,0,0,0,0,0,0,0,0,0,0,0,0,0,0,0,0,0,0,0],"sum_hessian":[4.021E3,1.898E3,2.123E3,1.314E3,5.84E2,1.812E3,3.11E2,6.75E2,6.39E2,3.37E2,2.47E2,9.5E2,8.62E2,7.9E1,2.32E2,6.6E1,6.09E2,5.7E1,5.82E2,2.95E2,4.2E1,2.37E2,1E1,3.93E2,5.57E2,1.95E2,6.67E2,4.4E1,3.5E1,1.27E2,1.05E2,1.4E1,5.2E1,5.36E2,7.3E1,8.8E1,4.94E2,2.36E2,5.9E1,2.6E1,1.6E1,1.89E2,4.8E1,1E0,9E0,3.14E2,7.9E1,1.53E2,4.04E2,2.1E1,1.74E2,2.53E2,4.14E2,5.5E1,7.2E1,1E2,5E0],"tree_param":{"num_deleted":"0","num_feature":"43","num_nodes":"57","size_leaf_vector":"1"}},{"base_weights":[8.816248E-5,-1.4748667E-1,1.3429856E-1,-2.1647692E-1,8.7526E-3,8.800979E-2,3.9002576E-1,-3.1101346E-1,-1.2279665E-1,-6.1654758E-2,1.05543524E-1,1.07140735E-1,-1.09819695E-1,5.107289E-1,2.6472753E-1,-3.3023128E-1,1.1551449E-2,-6.050722E-1,-1.0433713E-1,-1.3496439E-1,5.7750337E-2,6.111583E-2,1.3569864E-2,3.691236E-3,1.4123385E-1,-1.5639669E-1,-8.423906E-3,-4.8449878E-2,5.265723E-1,2.3615148E-2,3.2735217E-1,-3.0961936E-2,-1.8407049E-2,-5.8964547E-4,-4.621377E-2,-5.339379E-3,-1.3097071E-2,-7.0356373E-3,-3.4563594E-2,-2.7310986E-3,8.001442E-3,5.0772596E-3,-2.2225804E-3,-2.0281125E-2,6.6212E-3,3.2598958E-3,1.1818452E-2,-1.3841564E-3,-1.8199978E-2,-9.227829E-3,1.3155153E-2,-7.5928154E-3,-0E0,3.7862573E-2,-0E0,5.696092E-3,-1.1042672E-2,2.3234613E-2,-0E0],"categories":[],"categories_nodes":[],"categories_segments":[],"categories_sizes":[],"default_left":[0,0,0,0,0,0,0,0,0,0,0,0,0,0,0,0,0,0,0,0,0,0,0,0,0,0,0,0,0,0,0,0,0,0,0,0,0,0,0,0,0,0,0,0,0,0,0,0,0,0,0,0,0,0,0,0,0,0,0],"id":17,"left_children":[1,3,5,7,9,11,13,15,17,19,21,23,25,27,29,31,-1,33,35,37,39,41,-1,43,45,47,49,51,53,55,57,-1,-1,-1,-1,-1,-1,-1,-1,-1,-1,-1,-1,-1,-1,-1,-1,-1,-1,-1,-1,-1,-1,-1,-1,-1,-1,-1,-1],"loss_changes":[7.8794556E1,2.053431E1,2.4303268E1,1.1281654E1,3.9967334E0,6.73781E0,3.9364662E0,6.2111893E0,5.3445463E0,2.9914157E0,7.98002E-1,5.6237774E0,6.2769127E-1,1.7432442E0,2.2393808E0,3.9610367E0,0E0,3.732462E-1,1.3017025E0,2.0815132E0,7.55792E-1,2.230491E-1,0E0,1.0975267E1,3.1064758E0,1.2734747E0,1.4042535E0,4.392558E-2,1.3063774E0,4.0210155E-1,3.0354118E-1,0E0,0E0,0E0,0E0,0E0,0E0,0E0,0E0,0E0,0E0,0E0,0E0,0E0,0E0,0E0,0E0,0E0,0E0,0E0,0E0,0E0,0E0,0E0,0E0,0E0,0E0,0E0,0E0],"parents":[2147483647,0,0,1,1,2,2,3,3,4,4,5,5,6,6,7,7,8,8,9,9,10,10,11,11,12,12,13,13,14,14,15,15,17,17,18,18,19,19,20,20,21,21,23,23,24,24,25,25,26,26,27,27,28,28,29,29,30,30],"right_children":[2,4,6,8,10,12,14,16,18,20,22,24,26,28,30,32,-1,34,36,38,40,42,-1,44,46,48,50,52,54,56,58,-1,-1,-1,-1,-1,-1,-1,-1,-1,-1,-1,-1,-1,-1,-1,-1,-1,-1,-1,-1,-1,-1,-1,-1,-1,-1,-1,-1],"split_conditions":[-1.892563E-1,-5.779264E-2,1.6330003E0,7.1424775E-2,9.056923E-1,3.1416485E0,3.0273095E-1,6.3312516E0,-1.3431326E0,1.2025862E0,1.8073518E0,-5.9320056E-1,1.01929024E-1,1.856518E-1,1.3848411E0,-8.0606824E-1,1.1551449E-2,5.803512E-1,-4.8981947E-1,1.184122E-1,-1.3531044E0,-4.3285003E-1,1.3569864E-2,3.364428E-1,-5.564029E-1,-9.5325544E-2,-1.2787408E0,-1.4181726E0,5.6749873E0,5.6749873E0,5.6749873E0,-3.0961936E-2,-1.8407049E-2,-5.8964547E-4,-4.621377E-2,-5.339379E-3,-1.3097071E-2,-7.0356373E-3,-3.4563594E-2,-2.7310986E-3,8.001442E-3,5.0772596E-3,-2.2225804E-3,-2.0281125E-2,6.6212E-3,3.2598958E-3,1.1818452E-2,-1.3841564E-3,-1.8199978E-2,-9.227829E-3,1.3155153E-2,-7.5928154E-3,-0E0,3.7862573E-2,-0E0,5.696092E-3,-1.1042672E-2,2.3234613E-2,-0E0],"split_indices":[6,7,6,4,4,39,14,41,5,5,4,4,6,7,7,6,0,4,5,5,4,6,0,6,7,6,4,4,17,17,17,0,0,0,0,0,0,0,0,0,0,0,0,0,0,0,0,0,0,0,0,0,0,0,0,0,0,0,0],"split_type":[0,0,0,0,0,0,0,0,0,0,0,0,0,0,0,0,0,0,0,0,0,0,0,0,0,0,0,0,0,0,0,0,0,0,0,0,0,0,0,0,0,0,0,0,0,0,0,0,0,0,0,0,0,0,0,0,0,0,0],"sum_hessian":[3.973E3,1.89E3,2.083E3,1.313E3,5.77E2,1.769E3,3.14E2,6.47E2,6.66E2,3.31E2,2.46E2,1.617E3,1.52E2,1.53E2,1.61E2,6.24E2,2.3E1,2E1,6.46E2,2.08E2,1.23E2,1.72E2,7.4E1,4.06E2,1.211E3,9.9E1,5.3E1,3E0,1.5E2,3.6E1,1.25E2,2.19E2,4.05E2,3E0,1.7E1,4.95E2,1.51E2,1.95E2,1.3E1,4.2E1,8.1E1,1.59E2,1.3E1,9.3E1,3.13E2,2.87E2,9.24E2,4.7E1,5.2E1,3.5E1,1.8E1,2E0,1E0,1.45E2,5E0,3.1E1,5E0,1.23E2,2E0],"tree_param":{"num_deleted":"0","num_feature":"43","num_nodes":"59","size_leaf_vector":"1"}},{"base_weights":[1.2979452E-3,-1.19763054E-1,1.2235741E-1,5.264965E-2,-2.037815E-1,3.2311457E-1,6.53368E-2,-1.6289563E-1,1.0370067E-1,-3.788973E-1,-1.6683574E-1,2.2829245E-1,5.2978635E-1,3.9714377E-2,2.606794E-1,-4.1516036E-1,-9.083001E-2,1.8096007E-1,4.8153915E-2,-4.3528798E-1,-9.886972E-2,-2.4115591E-1,-1.01323135E-1,3.3629078E-1,1.8548967E-1,5.5351985E-1,-1.0833283E-2,1.3999474E-1,-1.5537623E-2,3.8207325E-3,3.2606086E-1,-0E0,-3.1275734E-2,-9.091724E-3,-0E0,1.4192006E-2,1.1952943E-3,-3.468576E-3,6.7719794E-3,-3.439655E-2,-1.5844699E-2,-1.7668108E-2,2.4423093E-4,-2.7665634E-2,-1.3314039E-2,-1.5178905E-2,3.7486092E-4,-0E0,2.3888187E-2,1.3289951E-2,-3.4311232E-3,4.3569215E-2,2.1244477E-2,6.846792E-3,1.8468184E-2,-5.60987E-4,-2.8946117E-2,4.3200487E-3,-5.4781097E-3,1.4280688E-2,3.0199634E-2],"categories":[],"categories_nodes":[],"categories_segments":[],"categories_sizes":[],"default_left":[0,0,0,0,0,0,0,0,0,0,0,0,0,0,0,0,0,0,0,0,0,0,0,0,0,0,0,0,0,0,0,0,0,0,0,0,0,0,0,0,0,0,0,0,0,0,0,0,0,0,0,0,0,0,0,0,0,0,0,0,0],"id":18,"left_children":[1,3,5,7,9,11,13,15,17,19,21,23,25,27,29,31,33,35,37,39,41,43,45,47,49,51,-1,53,55,57,59,-1,-1,-1,-1,-1,-1,-1,-1,-1,-1,-1,-1,-1,-1,-1,-1,-1,-1,-1,-1,-1,-1,-1,-1,-1,-1,-1,-1,-1,-1],"loss_changes":[5.8487667E1,2.8990345E1,2.2574404E1,7.1961803E0,8.176952E0,7.795845E0,7.6057496E0,1.8374135E0,2.1187596E0,3.1673546E0,5.1606236E0,9.289684E-1,2.6638603E0,7.765743E0,2.783371E0,3.24049E-1,4.3503863E-1,6.658001E-1,1.5703416E0,1.5277367E0,8.490449E-1,3.4599056E0,7.632677E0,2.4418736E-1,4.00527E-1,1.2332726E0,0E0,2.2981443E0,2.4067044E0,1.9992836E-1,1.1793232E0,0E0,0E0,0E0,0E0,0E0,0E0,0E0,0E0,0E0,0E0,0E0,0E0,0E0,0E0,0E0,0E0,0E0,0E0,0E0,0E0,0E0,0E0,0E0,0E0,0E0,0E0,0E0,0E0,0E0,0E0],"parents":[2147483647,0,0,1,1,2,2,3,3,4,4,5,5,6,6,7,7,8,8,9,9,10,10,11,11,12,12,13,13,14,14,15,15,16,16,17,17,18,18,19,19,20,20,21,21,22,22,23,23,24,24,25,25,27,27,28,28,29,29,30,30],"right_children":[2,4,6,8,10,12,14,16,18,20,22,24,26,28,30,32,34,36,38,40,42,44,46,48,50,52,-1,54,56,58,60,-1,-1,-1,-1,-1,-1,-1,-1,-1,-1,-1,-1,-1,-1,-1,-1,-1,-1,-1,-1,-1,-1,-1,-1,-1,-1,-1,-1,-1,-1],"split_conditions":[-5.779264E-2,-6.772875E-1,-4.546806E-1,-8.241918E-1,-7.6749045E-1,1.0241827E0,4.209293E0,-1.0315704E0,-1.0140039E0,-3.4631938E-1,-6.077967E-1,-9.672377E-1,5.5233965E0,1.081969E-1,2.1270117E-1,-1.2555021E0,1.2775106E0,5.9661824E-1,-5.987803E-1,9.994424E-1,-1.2950078E0,-1.8652423E-1,7.6556456E-1,-1.6042118E0,1.2267844E1,2.9101117E0,-1.0833283E-2,6.765614E-1,5.5233965E0,1.6761887E-1,-1.5134511E0,-0E0,-3.1275734E-2,-9.091724E-3,-0E0,1.4192006E-2,1.1952943E-3,-3.468576E-3,6.7719794E-3,-3.439655E-2,-1.5844699E-2,-1.7668108E-2,2.4423093E-4,-2.7665634E-2,-1.3314039E-2,-1.5178905E-2,3.7486092E-4,-0E0,2.3888187E-2,1.3289951E-2,-3.4311232E-3,4.3569215E-2,2.1244477E-2,6.846792E-3,1.8468184E-2,-5.60987E-4,-2.8946117E-2,4.3200487E-3,-5.4781097E-3,1.4280688E-2,3.0199634E-2],"split_indices":[7,1,1,7,4,7,40,7,1,7,7,1,7,1,7,4,4,4,7,8,4,4,8,8,20,30,0,7,7,7,4,0,0,0,0,0,0,0,0,0,0,0,0,0,0,0,0,0,0,0,0,0,0,0,0,0,0,0,0,0,0],"split_type":[0,0,0,0,0,0,0,0,0,0,0,0,0,0,0,0,0,0,0,0,0,0,0,0,0,0,0,0,0,0,0,0,0,0,0,0,0,0,0,0,0,0,0,0,0,0,0,0,0,0,0,0,0,0,0,0,0,0,0,0,0],"sum_hessian":[3.985E3,1.99E3,1.995E3,6.5E2,1.34E3,4.36E2,1.559E3,1.21E2,5.29E2,2.26E2,1.114E3,3.05E2,1.31E2,1.384E3,1.75E2,2.2E1,9.9E1,2.14E2,3.15E2,1.85E2,4.1E1,5.14E2,6E2,7.7E1,2.28E2,1.28E2,3E0,4.94E2,8.9E2,3.8E1,1.37E2,2E0,2E1,7.2E1,2.7E1,1.84E2,3E1,1.01E2,2.14E2,1.39E2,4.6E1,1.7E1,2.4E1,1.17E2,3.97E2,2.88E2,3.12E2,1E0,7.6E1,2.26E2,2E0,9.4E1,3.4E1,3.78E2,1.16E2,8.78E2,1.2E1,2.7E1,1.1E1,7.1E1,6.6E1],"tree_param":{"num_deleted":"0","num_feature":"43","num_nodes":"61","size_leaf_vector":"1"}},{"base_weights":[-1.6669934E-3,-1.349243E-1,1.1780663E-1,-1.9471559E-1,4.1213864E-3,8.550223E-2,4.3103155E-1,-2.9021966E-1,-1.0196206E-1,-5.607131E-2,9.4780885E-2,1.4306594E-1,-2.5687099E-2,5.2285E-1,2.3814432E-1,-1.795193E-1,-3.5549402E-1,-5.2371174E-1,-8.945762E-2,-1.3410135E-1,5.086164E-2,-0E0,1.1525105E-1,1.0060502E-1,2.2505055E-1,-7.8418635E-2,7.882317E-2,5.417278E-1,-0E0,-0E0,2.7534962E-1,-2.211486E-2,-6.449862E-3,-3.0744962E-2,-1.9440489E-2,-0E0,-4.1135956E-2,-2.3184062E-3,-1.1064886E-2,-7.1903197E-3,-2.5099667E-2,9.706658E-3,-2.265335E-3,1.8374586E-3,-3.9618197E-3,1.151016E-2,5.569119E-3,8.400615E-3,-6.840848E-3,2.4895785E-2,1.2900473E-2,-2.0019028E-2,-4.8529098E-4,-1.868322E-2,8.132111E-3,3.0840274E-2,4.8718438E-2,-7.1067135E-3,1.5178797E-3,2.0720033E-2,-0E0],"categories":[],"categories_nodes":[],"categories_segments":[],"categories_sizes":[],"default_left":[0,0,0,0,0,0,0,0,0,0,0,0,0,0,0,0,0,0,0,0,0,0,0,0,0,0,0,0,0,0,0,0,0,0,0,0,0,0,0,0,0,0,0,0,0,0,0,0,0,0,0,0,0,0,0,0,0,0,0,0,0],"id":19,"left_children":[1,3,5,7,9,11,13,15,17,19,21,23,25,27,29,31,33,35,37,39,41,43,45,47,49,51,53,55,57,-1,59,-1,-1,-1,-1,-1,-1,-1,-1,-1,-1,-1,-1,-1,-1,-1,-1,-1,-1,-1,-1,-1,-1,-1,-1,-1,-1,-1,-1,-1,-1],"loss_changes":[6.4452736E1,1.6045643E1,2.1153112E1,1.1573387E1,3.1810668E0,1.2484775E1,2.6700592E0,4.2401085E0,3.1276298E0,2.938996E0,4.7841048E-1,4.196911E0,3.6538267E0,1.4156609E0,7.4707794E-1,2.700162E0,1.8819199E0,2.8397036E-1,2.4954195E0,1.0297961E0,1.1391917E0,7.460214E-2,1.5759301E-1,3.442957E0,1.7492962E0,6.4438934E0,2.8784196E0,3.7303162E-1,4.2885948E-2,0E0,5.311637E-1,0E0,0E0,0E0,0E0,0E0,0E0,0E0,0E0,0E0,0E0,0E0,0E0,0E0,0E0,0E0,0E0,0E0,0E0,0E0,0E0,0E0,0E0,0E0,0E0,0E0,0E0,0E0,0E0,0E0,0E0],"parents":[2147483647,0,0,1,1,2,2,3,3,4,4,5,5,6,6,7,7,8,8,9,9,10,10,11,11,12,12,13,13,14,14,15,15,16,16,17,17,18,18,19,19,20,20,21,21,22,22,23,23,24,24,25,25,26,26,27,27,28,28,30,30],"right_children":[2,4,6,8,10,12,14,16,18,20,22,24,26,28,30,32,34,36,38,40,42,44,46,48,50,52,54,56,58,-1,60,-1,-1,-1,-1,-1,-1,-1,-1,-1,-1,-1,-1,-1,-1,-1,-1,-1,-1,-1,-1,-1,-1,-1,-1,-1,-1,-1,-1,-1,-1],"split_conditions":[-1.892563E-1,-5.779264E-2,1.8834822E0,7.1424775E-2,9.056923E-1,6.2621886E-1,-4.126775E-2,6.2621886E-1,-1.3431326E0,1.5776956E0,-4.8697546E-1,3.9843708E-1,1.5776956E0,2.156467E0,4.3434536E-1,-7.74758E-1,-4.4912097E-1,5.803512E-1,-3.5927764E-1,4.389375E-2,4.0768737E-1,-4.126775E-2,-4.1165572E-1,3.1416485E0,-8.714606E-1,-6.861552E-1,-1.7923149E0,3.1358922E0,6.2621886E-1,-0E0,5.6749873E0,-2.211486E-2,-6.449862E-3,-3.0744962E-2,-1.9440489E-2,-0E0,-4.1135956E-2,-2.3184062E-3,-1.1064886E-2,-7.1903197E-3,-2.5099667E-2,9.706658E-3,-2.265335E-3,1.8374586E-3,-3.9618197E-3,1.151016E-2,5.569119E-3,8.400615E-3,-6.840848E-3,2.4895785E-2,1.2900473E-2,-2.0019028E-2,-4.8529098E-4,-1.868322E-2,8.132111E-3,3.0840274E-2,4.8718438E-2,-7.1067135E-3,1.5178797E-3,2.0720033E-2,-0E0],"split_indices":[6,7,6,4,4,2,1,2,5,3,5,6,3,24,7,6,4,4,1,5,1,1,1,39,1,4,4,6,2,0,17,0,0,0,0,0,0,0,0,0,0,0,0,0,0,0,0,0,0,0,0,0,0,0,0,0,0,0,0,0,0],"split_type":[0,0,0,0,0,0,0,0,0,0,0,0,0,0,0,0,0,0,0,0,0,0,0,0,0,0,0,0,0,0,0,0,0,0,0,0,0,0,0,0,0,0,0,0,0,0,0,0,0,0,0,0,0,0,0,0,0,0,0,0,0],"sum_hessian":[4.042E3,1.913E3,2.129E3,1.34E3,5.73E2,1.935E3,1.94E2,6.54E2,6.86E2,3.41E2,2.32E2,1.278E3,6.57E2,1.26E2,6.8E1,2.5E2,4.04E2,1.5E1,6.71E2,2E2,1.41E2,4E1,1.92E2,8.51E2,4.27E2,4.41E2,2.16E2,1.22E2,4E0,8E0,6E1,9.1E1,1.59E2,1.8E2,2.24E2,3E0,1.2E1,3.78E2,2.93E2,1.82E2,1.8E1,7.1E1,7E1,2.6E1,1.4E1,6.8E1,1.24E2,7.77E2,7.4E1,9E1,3.37E2,1.08E2,3.33E2,1.8E1,1.98E2,8.4E1,3.8E1,1E0,3E0,5.7E1,3E0],"tree_param":{"num_deleted":"0","num_feature":"43","num_nodes":"61","size_leaf_vector":"1"}},{"base_weights":[-2.1319329E-3,-1.2097695E-1,1.0372405E-1,-1.7768139E-1,1.085785E-2,6.233803E-2,3.427569E-1,-8.688389E-2,-2.7313995E-1,-4.581101E-2,9.4218194E-2,1.2045831E-1,-4.9526468E-2,5.655987E-1,2.574803E-1,-5.8009166E-2,-2.8128743E-1,-4.0930587E-1,-2.1488485E-1,-1.00483954E-1,5.984657E-2,4.8780344E-2,1.3633391E-1,1.3764091E-1,-5.7002656E-2,-1.4206778E-1,1.611474E-2,2.8738886E-2,5.3441145E-2,2.1574795E-1,3.7580475E-2,-1.1557296E-2,1.8484199E-4,-2.092719E-2,-0E0,-3.6319498E-2,-2.1159615E-2,-4.8428653E-3,-1.6628323E-2,5.5511855E-3,-8.439309E-3,1.1599778E-2,-4.254647E-3,5.555848E-3,-0E0,9.730492E-3,-0E0,4.361492E-3,1.2002102E-2,-0E0,-1.3530066E-2,-1.9581372E-2,-0E0,1.0806312E-2,-1.85261E-3,1.6453812E-2,-6.87063E-3],"categories":[],"categories_nodes":[],"categories_segments":[],"categories_sizes":[],"default_left":[0,0,0,0,0,0,0,0,0,0,0,0,0,0,0,0,0,0,0,0,0,0,0,0,0,0,0,0,0,0,0,0,0,0,0,0,0,0,0,0,0,0,0,0,0,0,0,0,0,0,0,0,0,0,0,0,0],"id":20,"left_children":[1,3,5,7,9,11,13,15,17,19,21,23,25,27,29,31,33,35,37,39,41,43,45,47,49,51,53,-1,-1,55,-1,-1,-1,-1,-1,-1,-1,-1,-1,-1,-1,-1,-1,-1,-1,-1,-1,-1,-1,-1,-1,-1,-1,-1,-1,-1,-1],"loss_changes":[5.013977E1,1.4159653E1,2.0516077E1,1.11364975E1,2.7099726E0,1.1761915E1,4.9360046E0,3.5809417E0,4.430546E0,1.9703157E0,3.1636858E-1,3.6963367E0,3.811715E0,8.764801E-1,1.9158726E0,4.033757E0,4.0430164E-1,1.2352371E0,1.3459816E0,8.904569E-1,1.5360577E0,1.5608642E-1,8.534455E-2,2.656639E0,7.889856E-1,4.959156E0,2.2147245E0,0E0,0E0,1.4816008E0,0E0,0E0,0E0,0E0,0E0,0E0,0E0,0E0,0E0,0E0,0E0,0E0,0E0,0E0,0E0,0E0,0E0,0E0,0E0,0E0,0E0,0E0,0E0,0E0,0E0,0E0,0E0],"parents":[2147483647,0,0,1,1,2,2,3,3,4,4,5,5,6,6,7,7,8,8,9,9,10,10,11,11,12,12,13,13,14,14,15,15,16,16,17,17,18,18,19,19,20,20,21,21,22,22,23,23,24,24,25,25,26,26,29,29],"right_children":[2,4,6,8,10,12,14,16,18,20,22,24,26,28,30,32,34,36,38,40,42,44,46,48,50,52,54,-1,-1,56,-1,-1,-1,-1,-1,-1,-1,-1,-1,-1,-1,-1,-1,-1,-1,-1,-1,-1,-1,-1,-1,-1,-1,-1,-1,-1,-1],"split_conditions":[-1.892563E-1,-5.779264E-2,1.6330003E0,6.2621886E-1,9.056923E-1,6.2621886E-1,-6.772875E-1,5.760456E-1,-4.4912097E-1,2.9101117E0,1.3797607E0,3.1416485E0,-5.9320056E-1,3.010651E0,2.4668164E0,-8.906079E-1,1.3007493E0,-7.74758E-1,-4.9860337E-1,9.830813E-3,3.5156798E-1,1.0560464E0,1.4178364E0,2.0522377E-2,1.081969E-1,1.415436E0,-2.8445178E-1,2.8738886E-2,5.3441145E-2,5.6749873E0,3.7580475E-2,-1.1557296E-2,1.8484199E-4,-2.092719E-2,-0E0,-3.6319498E-2,-2.1159615E-2,-4.8428653E-3,-1.6628323E-2,5.5511855E-3,-8.439309E-3,1.1599778E-2,-4.254647E-3,5.555848E-3,-0E0,9.730492E-3,-0E0,4.361492E-3,1.2002102E-2,-0E0,-1.3530066E-2,-1.9581372E-2,-0E0,1.0806312E-2,-1.85261E-3,1.6453812E-2,-6.87063E-3],"split_indices":[6,7,6,2,4,2,1,1,4,30,4,39,4,6,7,5,4,6,1,7,1,4,1,6,1,5,1,0,0,17,0,0,0,0,0,0,0,0,0,0,0,0,0,0,0,0,0,0,0,0,0,0,0,0,0,0,0],"split_type":[0,0,0,0,0,0,0,0,0,0,0,0,0,0,0,0,0,0,0,0,0,0,0,0,0,0,0,0,0,0,0,0,0,0,0,0,0,0,0,0,0,0,0,0,0,0,0,0,0,0,0,0,0,0,0,0,0],"sum_hessian":[3.979E3,1.877E3,2.102E3,1.315E3,5.62E2,1.797E3,3.05E2,6.8E2,6.35E2,3.31E2,2.31E2,1.186E3,6.11E2,7.8E1,2.27E2,5.98E2,8.2E1,1.82E2,4.53E2,2.22E2,1.09E2,1.21E2,1.1E2,1.085E3,1.01E2,2.56E2,3.55E2,5.1E1,2.7E1,2.04E2,2.3E1,2.17E2,3.81E2,7.6E1,6E0,8E1,1.02E2,6.9E1,3.84E2,1.9E1,2.03E2,6E1,4.9E1,6.8E1,5.3E1,1.09E2,1E0,3.51E2,7.34E2,7.4E1,2.7E1,1.26E2,1.3E2,8.5E1,2.7E2,1.94E2,1E1],"tree_param":{"num_deleted":"0","num_feature":"43","num_nodes":"57","size_leaf_vector":"1"}},{"base_weights":[7.456468E-4,-1.7563051E-1,1.4538983E-1,-4.2571643E-1,-1.13312736E-1,9.945022E-2,3.8791046E-1,-4.5498067E-1,-1.4443322E-1,-1.5986082E-1,3.651432E-2,3.7550148E-2,1.611253E-1,3.2333353E-1,6.038785E-1,-5.4004586E-1,-3.881785E-1,-0E0,-1.7793171E-2,-2.4368723E-1,-1.1373298E-1,-4.796331E-2,1.284665E-1,-1.1007799E-2,1.3674906E-1,1.2556723E-1,2.9883236E-1,3.323531E-1,1.7155237E-2,1.6747464E-1,6.6208667E-1,-3.8411856E-2,-1.1752062E-3,-2.7323684E-2,-0E0,-2.784173E-3,-0E0,-1.742324E-2,-1.6185695E-3,-1.3275861E-2,-4.254622E-3,-6.9831586E-3,1.818607E-2,-6.463659E-3,1.0958032E-2,-5.7380446E-3,1.4914557E-3,1.1464177E-2,2.8201565E-3,2.3746224E-2,7.852877E-3,2.0917537E-2,-0E0,2.3726841E-2,1.4524373E-3,-0E0,3.1998092E-3,1.4245151E-2,-0E0,4.6524636E-2,-0E0],"categories":[],"categories_nodes":[],"categories_segments":[],"categories_sizes":[],"default_left":[0,0,0,0,0,0,0,0,0,0,0,0,0,0,0,0,0,0,0,0,0,0,0,0,0,0,0,0,0,0,0,0,0,0,0,0,0,0,0,0,0,0,0,0,0,0,0,0,0,0,0,0,0,0,0,0,0,0,0,0,0],"id":21,"left_children":[1,3,5,7,9,11,13,15,17,19,21,23,25,27,29,31,33,35,-1,37,39,41,43,45,47,49,51,53,55,57,59,-1,-1,-1,-1,-1,-1,-1,-1,-1,-1,-1,-1,-1,-1,-1,-1,-1,-1,-1,-1,-1,-1,-1,-1,-1,-1,-1,-1,-1,-1],"loss_changes":[1.0250608E2,2.7726368E1,2.4215263E1,2.3949966E0,1.0230797E1,6.977968E0,3.7464561E0,6.6278076E-1,5.2942556E-1,4.0074635E0,2.737372E0,4.6028433E0,4.1791134E0,5.364971E-1,1.0824413E0,4.0562057E-1,3.1344795E-1,1.5742263E-2,0E0,3.698616E-1,2.759941E0,2.8516285E0,1.1588881E0,1.4971099E0,6.951728E-1,1.6752825E0,7.367134E-2,4.4993782E-1,1.4900292E-2,1.07225716E-1,5.1912308E-2,0E0,0E0,0E0,0E0,0E0,0E0,0E0,0E0,0E0,0E0,0E0,0E0,0E0,0E0,0E0,0E0,0E0,0E0,0E0,0E0,0E0,0E0,0E0,0E0,0E0,0E0,0E0,0E0,0E0,0E0],"parents":[2147483647,0,0,1,1,2,2,3,3,4,4,5,5,6,6,7,7,8,8,9,9,10,10,11,11,12,12,13,13,14,14,15,15,16,16,17,17,19,19,20,20,21,21,22,22,23,23,24,24,25,25,26,26,27,27,28,28,29,29,30,30],"right_children":[2,4,6,8,10,12,14,16,18,20,22,24,26,28,30,32,34,36,-1,38,40,42,44,46,48,50,52,54,56,58,60,-1,-1,-1,-1,-1,-1,-1,-1,-1,-1,-1,-1,-1,-1,-1,-1,-1,-1,-1,-1,-1,-1,-1,-1,-1,-1,-1,-1,-1,-1],"split_conditions":[1.4329691E-1,-1.3249034E0,1.0067953E0,1.5241927E0,6.6813964E-1,-4.835855E-1,2.713204E0,-2.0590036E0,2.1263824E0,-5.908032E-1,-3.6641344E-1,1.1220971E0,1.1220971E0,6.918967E-1,6.32697E-1,2.5874207E0,2.0669603E0,-1.8143035E0,-1.7793171E-2,4.29766E0,-5.27407E-1,1.8834822E0,3.0857667E-1,-6.5139556E-1,5.9661824E-1,-1.3716953E0,3.597146E0,4.1753397E0,6.32697E-1,2.156467E0,5.6749873E0,-3.8411856E-2,-1.1752062E-3,-2.7323684E-2,-0E0,-2.784173E-3,-0E0,-1.742324E-2,-1.6185695E-3,-1.3275861E-2,-4.254622E-3,-6.9831586E-3,1.818607E-2,-6.463659E-3,1.0958032E-2,-5.7380446E-3,1.4914557E-3,1.1464177E-2,2.8201565E-3,2.3746224E-2,7.852877E-3,2.0917537E-2,-0E0,2.3726841E-2,1.4524373E-3,-0E0,3.1998092E-3,1.4245151E-2,-0E0,4.6524636E-2,-0E0],"split_indices":[0,0,6,5,5,5,6,0,5,0,8,0,0,4,0,3,6,0,0,23,6,6,6,6,4,4,3,22,0,24,17,0,0,0,0,0,0,0,0,0,0,0,0,0,0,0,0,0,0,0,0,0,0,0,0,0,0,0,0,0,0],"split_type":[0,0,0,0,0,0,0,0,0,0,0,0,0,0,0,0,0,0,0,0,0,0,0,0,0,0,0,0,0,0,0,0,0,0,0,0,0,0,0,0,0,0,0,0,0,0,0,0,0,0,0,0,0,0,0,0,0,0,0,0,0],"sum_hessian":[4.013E3,1.806E3,2.207E3,3.55E2,1.451E3,1.861E3,3.46E2,3.18E2,3.7E1,1.11E3,3.41E2,9.36E2,9.25E2,2.74E2,7.2E1,1.27E2,1.91E2,1.9E1,1.8E1,3.85E2,7.25E2,1.75E2,1.66E2,6.26E2,3.1E2,7.43E2,1.82E2,2.64E2,1E1,1.1E1,6.1E1,1.23E2,4E0,1.89E2,2E0,7E0,1.2E1,3.71E2,1.4E1,2.87E2,4.38E2,1.53E2,2.2E1,1.6E1,1.5E2,2E2,4.26E2,2.34E2,7.6E1,3.5E1,7.08E2,1.81E2,1E0,2.55E2,9E0,4E0,6E0,9E0,2E0,6E1,1E0],"tree_param":{"num_deleted":"0","num_feature":"43","num_nodes":"61","size_leaf_vector":"1"}},{"base_weights":[-3.079992E-3,-1.0710976E-1,9.1125354E-2,-4.6821752E-1,-9.1428205E-2,6.9125295E-2,3.95095E-1,1.6742348E-3,-4.9734703E-1,-7.7069798E-3,-1.3493642E-1,1.368721E-1,-2.983609E-3,4.8677802E-1,2.2313817E-1,-0E0,-3.5574358E-2,-7.677003E-2,3.2113925E-2,-4.1955598E-2,-2.096471E-1,5.449288E-2,1.8609603E-1,-2.9109666E-2,1.6177805E-1,4.941234E-1,-0E0,2.4239147E-1,-0E0,3.0168784E-3,-7.2950423E-3,8.572669E-3,3.0233889E-4,-4.861502E-3,3.5131406E-3,-1.1659868E-2,-2.3408057E-2,6.3561597E-3,-2.4652367E-3,1.8467246E-2,1.036244E-2,8.171138E-3,-3.7939409E-3,-7.250604E-3,1.7913645E-2,1.8254297E-2,3.8317256E-2,1.7583953E-2,-0E0],"categories":[],"categories_nodes":[],"categories_segments":[],"categories_sizes":[],"default_left":[0,0,0,0,0,0,0,0,0,0,0,0,0,0,0,0,0,0,0,0,0,0,0,0,0,0,0,0,0,0,0,0,0,0,0,0,0,0,0,0,0,0,0,0,0,0,0,0,0],"id":22,"left_children":[1,3,5,7,9,11,13,-1,15,17,19,21,23,25,27,-1,-1,29,31,33,35,37,39,41,43,45,-1,47,-1,-1,-1,-1,-1,-1,-1,-1,-1,-1,-1,-1,-1,-1,-1,-1,-1,-1,-1,-1,-1],"loss_changes":[3.9168125E1,1.0308443E1,1.3643122E1,1.4229088E0,6.5686617E0,9.646696E0,1.4490566E0,0E0,2.144661E-1,1.774534E0,8.143526E0,3.9364853E0,4.008838E0,1.3025856E-1,2.0683742E-1,0E0,0E0,8.4888315E-1,9.2638063E-1,1.4130083E0,3.0586529E0,1.3246855E0,1.4917278E0,3.0355854E0,3.3869185E0,1.8611717E-1,0E0,1.8942618E-1,0E0,0E0,0E0,0E0,0E0,0E0,0E0,0E0,0E0,0E0,0E0,0E0,0E0,0E0,0E0,0E0,0E0,0E0,0E0,0E0,0E0],"parents":[2147483647,0,0,1,1,2,2,3,3,4,4,5,5,6,6,8,8,9,9,10,10,11,11,12,12,13,13,14,14,17,17,18,18,19,19,20,20,21,21,22,22,23,23,24,24,25,25,27,27],"right_children":[2,4,6,8,10,12,14,-1,16,18,20,22,24,26,28,-1,-1,30,32,34,36,38,40,42,44,46,-1,48,-1,-1,-1,-1,-1,-1,-1,-1,-1,-1,-1,-1,-1,-1,-1,-1,-1,-1,-1,-1,-1],"split_conditions":[-1.892563E-1,-4.4175476E-1,2.5253425E0,1.1334183E0,-4.1165572E-1,-7.868067E-2,-2.2833239E-1,1.6742348E-3,3.0273095E-1,-6.8395823E-1,-6.735167E-1,2.0522377E-2,4.209293E0,4.29766E0,2.156467E0,-0E0,-3.5574358E-2,1.1334183E0,-1.0140039E0,1.5776956E0,-3.6794686E-1,-4.8780546E-1,-8.614339E-1,-1.4006296E0,1.5776956E0,2.713204E0,-0E0,2.9101117E0,-0E0,3.0168784E-3,-7.2950423E-3,8.572669E-3,3.0233889E-4,-4.861502E-3,3.5131406E-3,-1.1659868E-2,-2.3408057E-2,6.3561597E-3,-2.4652367E-3,1.8467246E-2,1.036244E-2,8.171138E-3,-3.7939409E-3,-7.250604E-3,1.7913645E-2,1.8254297E-2,3.8317256E-2,1.7583953E-2,-0E0],"split_indices":[6,3,6,11,1,1,1,0,14,6,8,6,40,23,24,0,0,11,1,3,5,5,1,8,3,6,0,30,0,0,0,0,0,0,0,0,0,0,0,0,0,0,0,0,0,0,0,0,0],"split_type":[0,0,0,0,0,0,0,0,0,0,0,0,0,0,0,0,0,0,0,0,0,0,0,0,0,0,0,0,0,0,0,0,0,0,0,0,0,0,0,0,0,0,0,0,0,0,0,0,0],"sum_hessian":[3.99E3,1.899E3,2.091E3,7.4E1,1.825E3,1.955E3,1.36E2,3E0,7.1E1,6.3E2,1.195E3,1.011E3,9.44E2,8.3E1,5.3E1,3E0,6.8E1,2.35E2,3.95E2,5.38E2,6.57E2,3.85E2,6.26E2,8.2E2,1.24E2,8.1E1,2E0,4.8E1,5E0,4E1,1.95E2,8.5E1,3.1E2,4.19E2,1.19E2,5.01E2,1.56E2,2.78E2,1.07E2,1.9E2,4.36E2,1.16E2,7.04E2,3.1E1,9.3E1,2.1E1,6E1,4.7E1,1E0],"tree_param":{"num_deleted":"0","num_feature":"43","num_nodes":"49","size_leaf_vector":"1"}},{"base_weights":[9.524602E-4,-2.2616677E-1,9.190941E-2,-3.882391E-1,-1.5680966E-1,4.2628635E-2,2.4793155E-1,-5.241825E-1,-3.3303705E-1,-1.8607062E-1,-0E0,-6.27332E-2,9.987322E-2,1.5929605E-1,3.4238294E-1,-5.297837E-1,-0E0,-3.4089032E-1,-0E0,-2.6236326E-1,-1.4901496E-1,-4.096657E-2,1.4264782E-1,-2.0037074E-1,-3.9393317E-2,-1.8937511E-3,1.2714303E-1,3.2886353E-1,1.3379303E-1,2.9179052E-1,5.584849E-1,-3.742601E-2,-0E0,-2.4296125E-2,-0E0,-5.7138815E-3,5.83187E-3,-1.9132722E-2,-0E0,-1.1542842E-2,-2.9372016E-3,3.9179897E-4,-9.929052E-3,-0E0,1.1318709E-2,-0E0,-1.4429054E-2,-4.2002797E-3,3.3525915E-3,-3.0978976E-3,2.249667E-3,6.4858464E-3,1.3415866E-2,-0E0,2.4146754E-2,4.105102E-4,1.2060961E-2,1.2935465E-2,2.2328082E-2,3.9285164E-2,-0E0],"categories":[],"categories_nodes":[],"categories_segments":[],"categories_sizes":[],"default_left":[0,0,0,0,0,0,0,0,0,0,0,0,0,0,0,0,0,0,0,0,0,0,0,0,0,0,0,0,0,0,0,0,0,0,0,0,0,0,0,0,0,0,0,0,0,0,0,0,0,0,0,0,0,0,0,0,0,0,0,0,0],"id":23,"left_children":[1,3,5,7,9,11,13,15,17,19,21,23,25,27,29,31,-1,33,35,37,39,41,43,45,47,49,51,53,55,57,59,-1,-1,-1,-1,-1,-1,-1,-1,-1,-1,-1,-1,-1,-1,-1,-1,-1,-1,-1,-1,-1,-1,-1,-1,-1,-1,-1,-1,-1,-1],"loss_changes":[8.211139E1,1.2264034E1,2.165217E1,1.5029259E0,3.657999E0,1.3109521E1,5.2236023E0,2.4387169E-1,7.413235E-1,1.5498791E0,7.6139593E-1,2.2763932E0,3.9863815E0,1.1459875E0,2.549694E0,1.293621E-1,0E0,4.8709297E-1,7.396539E-2,7.2310257E-1,6.8735504E-1,5.767905E-1,1.21990025E-1,1.6400576E-1,1.2196308E0,4.422348E-1,2.2613869E0,3.8335943E-1,1.4989905E0,3.4700775E-1,2.8583527E-2,0E0,0E0,0E0,0E0,0E0,0E0,0E0,0E0,0E0,0E0,0E0,0E0,0E0,0E0,0E0,0E0,0E0,0E0,0E0,0E0,0E0,0E0,0E0,0E0,0E0,0E0,0E0,0E0,0E0,0E0],"parents":[2147483647,0,0,1,1,2,2,3,3,4,4,5,5,6,6,7,7,8,8,9,9,10,10,11,11,12,12,13,13,14,14,15,15,17,17,18,18,19,19,20,20,21,21,22,22,23,23,24,24,25,25,26,26,27,27,28,28,29,29,30,30],"right_children":[2,4,6,8,10,12,14,16,18,20,22,24,26,28,30,32,-1,34,36,38,40,42,44,46,48,50,52,54,56,58,60,-1,-1,-1,-1,-1,-1,-1,-1,-1,-1,-1,-1,-1,-1,-1,-1,-1,-1,-1,-1,-1,-1,-1,-1,-1,-1,-1,-1,-1,-1],"split_conditions":[-3.461032E-1,-1.3249034E0,3.993764E-1,-2.3037035E0,8.50244E-1,3.8799697E-1,6.32697E-1,2.1995455E1,3.2884827E0,-8.355033E-1,1.3848411E0,-9.294306E-1,-7.2501075E-1,4.8078305E-1,2.713204E0,4.1753397E0,-0E0,1.8772202E0,-2.0590036E0,2.5402243E0,5.679704E-1,1.1143472E0,-2.2833239E-1,-1.654576E0,1.5776956E0,-9.006694E-1,1.1220971E0,-7.068063E-1,8.50244E-1,7.5631326E-1,5.6749873E0,-3.742601E-2,-0E0,-2.4296125E-2,-0E0,-5.7138815E-3,5.83187E-3,-1.9132722E-2,-0E0,-1.1542842E-2,-2.9372016E-3,3.9179897E-4,-9.929052E-3,-0E0,1.1318709E-2,-0E0,-1.4429054E-2,-4.2002797E-3,3.3525915E-3,-3.0978976E-3,2.249667E-3,6.4858464E-3,1.3415866E-2,-0E0,2.4146754E-2,4.105102E-4,1.2060961E-2,1.2935465E-2,2.2328082E-2,3.9285164E-2,-0E0],"split_indices":[0,0,6,0,6,0,0,33,1,0,7,6,7,6,6,22,0,6,0,1,3,7,1,6,3,7,0,1,6,6,17,0,0,0,0,0,0,0,0,0,0,0,0,0,0,0,0,0,0,0,0,0,0,0,0,0,0,0,0,0,0],"split_type":[0,0,0,0,0,0,0,0,0,0,0,0,0,0,0,0,0,0,0,0,0,0,0,0,0,0,0,0,0,0,0,0,0,0,0,0,0,0,0,0,0,0,0,0,0,0,0,0,0,0,0,0,0,0,0,0,0,0,0,0,0],"sum_hessian":[3.973E3,1.133E3,2.84E3,3.33E2,8E2,2.164E3,6.76E2,8.6E1,2.47E2,6.73E2,1.27E2,7.58E2,1.406E3,3.56E2,3.2E2,8.5E1,1E0,2.42E2,5E0,2.09E2,4.64E2,1.01E2,2.6E1,1.03E2,6.55E2,2.93E2,1.113E3,3.9E1,3.17E2,2.67E2,5.3E1,8.3E1,2E0,2.35E2,7E0,1E0,4E0,2E2,9E0,3.95E2,6.9E1,6.7E1,3.4E1,2E0,2.4E1,3E0,1E2,5.35E2,1.2E2,1.38E2,1.55E2,7.43E2,3.7E2,1E0,3.8E1,7.9E1,2.38E2,6.6E1,2.01E2,5.2E1,1E0],"tree_param":{"num_deleted":"0","num_feature":"43","num_nodes":"61","size_leaf_vector":"1"}},{"base_weights":[-2.5760639E-3,-7.45427E-2,8.0347374E-2,-4.4674417E-1,-6.1563246E-2,3.026884E-1,5.0724942E-2,-0E0,-4.6544296E-1,-1.0931342E-1,-5.0130705E-3,2.536447E-1,3.73967E-2,6.923679E-2,-1.4397356E-1,-0E0,-3.3111967E-2,-9.793315E-2,-5.4380053E-1,1.3812898E-2,-3.3651605E-1,2.6176435E-1,-0E0,7.456022E-2,-2.4776706E-2,-2.5997415E-1,-1.8919004E-2,-5.5098967E-3,-1.2692191E-2,-0E0,-3.9864488E-2,-2.0626034E-3,7.0721847E-3,-2.4315322E-2,-0E0,1.2380056E-2,2.2125812E-2,3.043507E-3,9.465251E-3,-1.903716E-2,-0E0,1.0732703E-2,-4.1129766E-3],"categories":[],"categories_nodes":[],"categories_segments":[],"categories_sizes":[],"default_left":[0,0,0,0,0,0,0,0,0,0,0,0,0,0,0,0,0,0,0,0,0,0,0,0,0,0,0,0,0,0,0,0,0,0,0,0,0,0,0,0,0,0,0],"id":24,"left_children":[1,3,5,7,9,11,13,-1,15,17,19,21,-1,23,25,-1,-1,27,29,31,33,35,-1,37,-1,39,41,-1,-1,-1,-1,-1,-1,-1,-1,-1,-1,-1,-1,-1,-1,-1,-1],"loss_changes":[2.4062601E1,1.0062212E1,1.20574255E1,7.752447E-1,5.585848E0,1.6234093E0,5.95122E0,0E0,1.9214821E-1,5.0458612E0,6.249042E0,5.078869E-1,0E0,3.3367324E0,1.8747425E0,0E0,0E0,1.5554752E0,1.9999218E-1,3.544799E0,2.2065544E-1,3.9752007E-1,0E0,2.7172346E0,0E0,2.7999353E-1,4.8111942E-1,0E0,0E0,0E0,0E0,0E0,0E0,0E0,0E0,0E0,0E0,0E0,0E0,0E0,0E0,0E0,0E0],"parents":[2147483647,0,0,1,1,2,2,3,3,4,4,5,5,6,6,8,8,9,9,10,10,11,11,13,13,14,14,17,17,18,18,19,19,20,20,21,21,23,23,25,25,26,26],"right_children":[2,4,6,8,10,12,14,-1,16,18,20,22,-1,24,26,-1,-1,28,30,32,34,36,-1,38,-1,40,42,-1,-1,-1,-1,-1,-1,-1,-1,-1,-1,-1,-1,-1,-1,-1,-1],"split_conditions":[1.2253657E-1,-4.4175476E-1,3.0273095E-1,1.1334183E0,9.994424E-1,2.4668164E0,3.1416485E0,-0E0,3.0273095E-1,8.405298E-1,5.6749873E0,5.6749873E0,3.73967E-2,2.4668164E0,4.83195E-1,-0E0,-3.3111967E-2,3.1416485E0,-2.8640425E-1,-5.564029E-1,1.2890788E1,1.1143472E0,-0E0,1.5776956E0,-2.4776706E-2,1.0311434E0,5.679704E-1,-5.5098967E-3,-1.2692191E-2,-0E0,-3.9864488E-2,-2.0626034E-3,7.0721847E-3,-2.4315322E-2,-0E0,1.2380056E-2,2.2125812E-2,3.043507E-3,9.465251E-3,-1.903716E-2,-0E0,1.0732703E-2,-4.1129766E-3],"split_indices":[7,3,14,11,8,7,39,0,14,8,17,17,0,7,7,0,0,39,5,7,10,7,0,3,0,5,3,0,0,0,0,0,0,0,0,0,0,0,0,0,0,0,0],"split_type":[0,0,0,0,0,0,0,0,0,0,0,0,0,0,0,0,0,0,0,0,0,0,0,0,0,0,0,0,0,0,0,0,0,0,0,0,0,0,0,0,0,0,0],"sum_hessian":[4.027E3,2.16E3,1.867E3,6.8E1,2.092E3,2.14E2,1.653E3,2E0,6.6E1,1.127E3,9.65E2,1.84E2,3E1,1.514E3,1.39E2,2E0,6.4E1,1.103E3,2.4E1,9.14E2,5.1E1,1.8E2,4E0,1.499E3,1.5E1,6.8E1,7.1E1,9.12E2,1.91E2,2E0,2.2E1,6.08E2,3.06E2,4.9E1,2E0,8.1E1,9.9E1,1.007E3,4.92E2,6.5E1,3E0,9E0,6.2E1],"tree_param":{"num_deleted":"0","num_feature":"43","num_nodes":"43","size_leaf_vector":"1"}},{"base_weights":[5.1836064E-4,-2.0464587E-1,8.3251946E-2,-3.530326E-1,-1.4119479E-1,4.7305014E-2,2.5280535E-1,-4.5875213E-1,-2.819527E-1,-1.6351284E-1,-5.267167E-3,-3.8407166E-2,9.634883E-2,1.789594E-1,3.6815965E-1,-0E0,-4.6359676E-1,-2.9850736E-1,-0E0,-1.7662524E-1,5.9993E-2,7.666118E-3,-1.5048824E-1,-1.7941737E-1,-1.9492015E-2,6.45956E-2,1.6192505E-1,1.0403199E-1,2.1738446E-1,3.0544412E-1,4.439571E-2,-3.2791905E-2,-0E0,-2.140005E-2,-0E0,2.9106596E-3,-1.1514111E-3,-1.0632449E-2,-1.7367424E-2,-0E0,5.427393E-3,-4.43059E-3,3.6966098E-3,-0E0,-1.2588138E-2,-0E0,-1.2664207E-2,-3.0270664E-3,4.8460704E-3,7.584385E-3,8.4701244E-4,1.5631024E-2,8.198518E-3,7.749055E-3,-0E0,1.5445998E-2,-0E0,2.189592E-2,-0E0],"categories":[],"categories_nodes":[],"categories_segments":[],"categories_sizes":[],"default_left":[0,0,0,0,0,0,0,0,0,0,0,0,0,0,0,0,0,0,0,0,0,0,0,0,0,0,0,0,0,0,0,0,0,0,0,0,0,0,0,0,0,0,0,0,0,0,0,0,0,0,0,0,0,0,0,0,0,0,0],"id":25,"left_children":[1,3,5,7,9,11,13,15,17,19,21,23,25,27,29,-1,31,33,35,37,39,41,43,45,47,49,51,53,55,57,-1,-1,-1,-1,-1,-1,-1,-1,-1,-1,-1,-1,-1,-1,-1,-1,-1,-1,-1,-1,-1,-1,-1,-1,-1,-1,-1,-1,-1],"loss_changes":[6.761382E1,1.0328033E1,1.7117102E1,1.720993E0,2.3490372E0,9.93624E0,3.6873798E0,3.5638237E-1,1.065197E0,2.1255817E0,3.16819E-1,2.1469135E0,2.9601421E0,6.328163E-1,2.0282726E0,0E0,1.8784904E-1,4.0688705E-1,1.7604709E-2,7.912903E-1,5.1088497E-2,3.5876536E-1,7.3417366E-2,1.791811E-2,1.6148567E0,2.2984538E0,1.0487995E0,1.3058591E-1,2.3048496E-1,2.8474998E-1,0E0,0E0,0E0,0E0,0E0,0E0,0E0,0E0,0E0,0E0,0E0,0E0,0E0,0E0,0E0,0E0,0E0,0E0,0E0,0E0,0E0,0E0,0E0,0E0,0E0,0E0,0E0,0E0,0E0],"parents":[2147483647,0,0,1,1,2,2,3,3,4,4,5,5,6,6,7,7,8,8,9,9,10,10,11,11,12,12,13,13,14,14,16,16,17,17,18,18,19,19,20,20,21,21,22,22,23,23,24,24,25,25,26,26,27,27,28,28,29,29],"right_children":[2,4,6,8,10,12,14,16,18,20,22,24,26,28,30,-1,32,34,36,38,40,42,44,46,48,50,52,54,56,58,-1,-1,-1,-1,-1,-1,-1,-1,-1,-1,-1,-1,-1,-1,-1,-1,-1,-1,-1,-1,-1,-1,-1,-1,-1,-1,-1,-1,-1],"split_conditions":[-3.461032E-1,-1.3249034E0,8.50244E-1,-2.0590036E0,8.50244E-1,3.8799697E-1,8.7739706E-1,-5.484804E0,4.209293E0,4.209293E0,5.6749873E0,-9.294306E-1,1.1220971E0,1.4329691E-1,3.010651E0,-0E0,4.1753397E0,2.0669603E0,1.955426E0,-1.5638053E-1,-8.355033E-1,-8.355033E-1,-4.4175476E-1,-1.654576E0,1.5776956E0,1.1334183E0,1.1334183E0,5.6749873E0,5.6749873E0,4.1753397E0,4.439571E-2,-3.2791905E-2,-0E0,-2.140005E-2,-0E0,2.9106596E-3,-1.1514111E-3,-1.0632449E-2,-1.7367424E-2,-0E0,5.427393E-3,-4.43059E-3,3.6966098E-3,-0E0,-1.2588138E-2,-0E0,-1.2664207E-2,-3.0270664E-3,4.8460704E-3,7.584385E-3,8.4701244E-4,1.5631024E-2,8.198518E-3,7.749055E-3,-0E0,1.5445998E-2,-0E0,2.189592E-2,-0E0],"split_indices":[0,0,6,0,6,0,0,0,40,40,17,6,0,0,6,0,22,6,2,6,0,0,3,6,3,11,11,17,17,22,0,0,0,0,0,0,0,0,0,0,0,0,0,0,0,0,0,0,0,0,0,0,0,0,0,0,0,0,0],"split_type":[0,0,0,0,0,0,0,0,0,0,0,0,0,0,0,0,0,0,0,0,0,0,0,0,0,0,0,0,0,0,0,0,0,0,0,0,0,0,0,0,0,0,0,0,0,0,0,0,0,0,0,0,0,0,0,0,0,0,0],"sum_hessian":[3.982E3,1.141E3,2.841E3,3.35E2,8.06E2,2.35E3,4.91E2,1.25E2,2.1E2,6.88E2,1.18E2,8.51E2,1.499E3,3.07E2,1.84E2,1E0,1.24E2,1.99E2,1.1E1,6.53E2,3.5E1,1.07E2,1.1E1,9.4E1,7.57E2,1.02E3,4.79E2,1.13E2,1.94E2,1.56E2,2.8E1,1.21E2,3E0,1.92E2,7E0,6E0,5E0,5.04E2,1.49E2,7E0,2.8E1,3.6E1,7.1E1,2E0,9E0,2E0,9.2E1,6.03E2,1.54E2,5.45E2,4.75E2,1.88E2,2.91E2,1.09E2,4E0,1.91E2,3E0,1.5E2,6E0],"tree_param":{"num_deleted":"0","num_feature":"43","num_nodes":"59","size_leaf_vector":"1"}},{"base_weights":[1.0939937E-3,-1.3612095E-1,1.1514065E-1,-2.701096E-1,-6.737597E-2,7.68918E-2,2.6014847E-1,-3.9075077E-1,-2.1701446E-1,-1.03981756E-1,6.311183E-2,2.4760764E-2,1.2784517E-1,2.1513198E-1,4.0992934E-1,-3.9518967E-1,-0E0,-2.269287E-1,4.998837E-3,-8.142521E-2,-2.5799182E-1,2.4224563E-2,1.8437538E-1,-1.9845493E-2,6.617304E-2,8.087077E-2,1.889346E-1,2.3231125E-1,-0E0,5.536231E-1,2.8428823E-1,-0E0,-2.7741823E-2,-1.4217773E-2,-2.4520367E-2,4.843206E-3,-6.769506E-3,-8.44782E-3,-3.4200817E-3,-2.2889227E-2,-1.2682524E-2,1.4280202E-2,-1.4168812E-3,-0E0,1.6251542E-2,-5.5446294E-3,-0E0,5.3067985E-3,-3.6560446E-3,-7.997017E-5,6.5244697E-3,9.898113E-3,1.6014352E-2,2.007805E-2,1.017776E-2,-4.205045E-3,1.441214E-3,3.9595243E-2,-0E0,2.0770257E-2,-0E0],"categories":[],"categories_nodes":[],"categories_segments":[],"categories_sizes":[],"default_left":[0,0,0,0,0,0,0,0,0,0,0,0,0,0,0,0,0,0,0,0,0,0,0,0,0,0,0,0,0,0,0,0,0,0,0,0,0,0,0,0,0,0,0,0,0,0,0,0,0,0,0,0,0,0,0,0,0,0,0,0,0],"id":26,"left_children":[1,3,5,7,9,11,13,15,17,19,21,23,25,27,29,31,-1,33,35,37,39,41,43,45,47,49,51,53,55,57,59,-1,-1,-1,-1,-1,-1,-1,-1,-1,-1,-1,-1,-1,-1,-1,-1,-1,-1,-1,-1,-1,-1,-1,-1,-1,-1,-1,-1,-1,-1],"loss_changes":[6.2985237E1,1.6552383E1,1.1945477E1,3.3282318E0,5.836807E0,4.54389E0,2.4365654E0,3.185978E-1,1.0992718E0,3.0410757E0,1.1050813E0,1.6460402E0,2.3120441E0,1.4631634E0,8.2796097E-1,2.8102493E-1,0E0,6.587353E-1,1.2684657E-1,9.5925E-1,1.463294E-1,1.7905079E0,4.0710068E-1,5.0698423E-1,5.735233E-1,5.8851504E-1,3.988371E-1,1.2313404E0,6.0492605E-2,3.412056E-2,2.2625399E-1,0E0,0E0,0E0,0E0,0E0,0E0,0E0,0E0,0E0,0E0,0E0,0E0,0E0,0E0,0E0,0E0,0E0,0E0,0E0,0E0,0E0,0E0,0E0,0E0,0E0,0E0,0E0,0E0,0E0,0E0],"parents":[2147483647,0,0,1,1,2,2,3,3,4,4,5,5,6,6,7,7,8,8,9,9,10,10,11,11,12,12,13,13,14,14,15,15,17,17,18,18,19,19,20,20,21,21,22,22,23,23,24,24,25,25,26,26,27,27,28,28,29,29,30,30],"right_children":[2,4,6,8,10,12,14,16,18,20,22,24,26,28,30,32,-1,34,36,38,40,42,44,46,48,50,52,54,56,58,60,-1,-1,-1,-1,-1,-1,-1,-1,-1,-1,-1,-1,-1,-1,-1,-1,-1,-1,-1,-1,-1,-1,-1,-1,-1,-1,-1,-1,-1,-1],"split_conditions":[1.4329691E-1,-8.355033E-1,1.7480454E-1,-1.8143035E0,1.0629839E0,8.7739706E-1,1.1220971E0,2.1995455E1,2.5402243E0,3.1416485E0,4.209293E0,-4.835855E-1,-4.835855E-1,3.1416485E0,3.0273095E-1,-5.484804E0,-0E0,3.1416485E0,4.223806E0,-3.461032E-1,-1.3535333E-1,3.0273095E-1,-5.908032E-1,-9.0511215E-1,3.1416485E0,-1.069855E0,1.1220971E0,2.9101117E0,8.7739706E-1,3.4799427E1,6.704758E-1,-0E0,-2.7741823E-2,-1.4217773E-2,-2.4520367E-2,4.843206E-3,-6.769506E-3,-8.44782E-3,-3.4200817E-3,-2.2889227E-2,-1.2682524E-2,1.4280202E-2,-1.4168812E-3,-0E0,1.6251542E-2,-5.5446294E-3,-0E0,5.3067985E-3,-3.6560446E-3,-7.997017E-5,6.5244697E-3,9.898113E-3,1.6014352E-2,2.007805E-2,1.017776E-2,-4.205045E-3,1.441214E-3,3.9595243E-2,-0E0,2.0770257E-2,-0E0],"split_indices":[0,0,5,0,5,0,0,33,1,39,40,5,5,39,14,0,0,39,1,0,5,14,0,5,39,5,0,30,0,25,1,0,0,0,0,0,0,0,0,0,0,0,0,0,0,0,0,0,0,0,0,0,0,0,0,0,0,0,0,0,0],"split_type":[0,0,0,0,0,0,0,0,0,0,0,0,0,0,0,0,0,0,0,0,0,0,0,0,0,0,0,0,0,0,0,0,0,0,0,0,0,0,0,0,0,0,0,0,0,0,0,0,0,0,0,0,0,0,0,0,0,0,0,0,0],"sum_hessian":[4.02E3,1.822E3,2.198E3,6.12E2,1.21E3,1.746E3,4.52E2,1.78E2,4.34E2,9.49E2,2.61E2,8.71E2,8.75E2,3.56E2,9.6E1,1.76E2,2E0,4.18E2,1.6E1,8.35E2,1.14E2,2.04E2,5.7E1,4.13E2,4.58E2,5.04E2,3.71E2,3.32E2,2.4E1,3.8E1,5.8E1,1E0,1.75E2,3.64E2,5.4E1,1.4E1,2E0,3.62E2,4.73E2,5E1,6.4E1,4.1E1,1.63E2,1.5E1,4.2E1,1.03E2,3.1E2,4.28E2,3E1,6.2E1,4.42E2,1.86E2,1.85E2,1.93E2,1.39E2,1.2E1,1.2E1,3.6E1,2E0,5.5E1,3E0],"tree_param":{"num_deleted":"0","num_feature":"43","num_nodes":"61","size_leaf_vector":"1"}},{"base_weights":[-3.7940089E-3,2.1313883E-1,-2.3924336E-2,1.24564745E-1,2.9813176E-1,2.8025186E-2,-9.780854E-2,-1.2397402E-1,1.4407288E-1,4.8151115E-1,2.0429467E-1,-1.1564838E-1,4.615643E-2,-2.4522278E-1,-7.3290706E-2,-1.7106317E-1,-0E0,1.5060814E-1,-0E0,1.439441E-1,3.621326E-2,2.188147E-1,-9.374597E-3,-3.0814222E-1,-8.800165E-2,6.366633E-2,-3.4726042E-2,-3.3871853E-1,-1.8866126E-1,-8.687183E-2,9.6039645E-2,-0E0,-1.3559787E-2,-0E0,1.0736464E-2,1.1863312E-2,-0E0,1.7455544E-2,1.6065397E-3,-0E0,-2.3235472E-2,-7.227112E-3,-0E0,1.7408506E-3,6.7206845E-3,-4.7152904E-3,1.17885955E-2,-0E0,-2.383255E-2,-3.2423466E-2,-1.0981981E-2,-8.709904E-3,-5.0383864E-4,-0E0,1.035448E-2],"categories":[],"categories_nodes":[],"categories_segments":[],"categories_sizes":[],"default_left":[0,0,0,0,0,0,0,0,0,0,0,0,0,0,0,0,0,0,0,0,0,0,0,0,0,0,0,0,0,0,0,0,0,0,0,0,0,0,0,0,0,0,0,0,0,0,0,0,0,0,0,0,0,0,0],"id":27,"left_children":[1,3,5,7,9,11,13,15,17,19,21,23,25,27,29,31,-1,33,-1,35,-1,37,-1,39,41,43,45,47,49,51,53,-1,-1,-1,-1,-1,-1,-1,-1,-1,-1,-1,-1,-1,-1,-1,-1,-1,-1,-1,-1,-1,-1,-1,-1],"loss_changes":[1.7288355E1,2.1662827E0,1.405531E1,9.0121055E-1,2.157775E0,5.547391E0,5.2199802E0,1.3540623E-1,2.2481894E-1,5.6397438E-2,7.100344E-1,9.430864E-1,2.7229953E0,6.13183E-1,3.016708E0,5.5829823E-2,0E0,1.2467003E-1,0E0,3.1941995E-2,0E0,5.324688E-1,0E0,1.9963074E-1,3.1245005E-1,1.9172487E0,2.2231174E0,5.141449E-2,6.301546E-1,3.6015968E0,5.5831957E-1,0E0,0E0,0E0,0E0,0E0,0E0,0E0,0E0,0E0,0E0,0E0,0E0,0E0,0E0,0E0,0E0,0E0,0E0,0E0,0E0,0E0,0E0,0E0,0E0],"parents":[2147483647,0,0,1,1,2,2,3,3,4,4,5,5,6,6,7,7,8,8,9,9,10,10,11,11,12,12,13,13,14,14,15,15,17,17,19,19,21,21,23,23,24,24,25,25,26,26,27,27,28,28,29,29,30,30],"right_children":[2,4,6,8,10,12,14,16,18,20,22,24,26,28,30,32,-1,34,-1,36,-1,38,-1,40,42,44,46,48,50,52,54,-1,-1,-1,-1,-1,-1,-1,-1,-1,-1,-1,-1,-1,-1,-1,-1,-1,-1,-1,-1,-1,-1,-1,-1],"split_conditions":[3.0273095E-1,7.206018E-1,6.2621886E-1,-1.2950078E0,-6.772875E-1,-8.906079E-1,-8.906079E-1,1.3120322E1,1.955426E0,-1.5088034E0,1.6610204E0,-7.442518E-1,6.6957784E-1,-3.259561E-1,4.209293E0,